digraph Tree {
node [shape=box, style="rounded", color="black", fontname="helvetica"] ;
edge [fontname="helvetica"] ;
0 [label="station_max_temp_c <= 34.7\nsquared_error = 3153.0\nsamples = 450\nvalue = 38.8"] ;
1 [label="reanalysis_dew_point_temp_k <= 297.5\nsquared_error = 2670.4\nsamples = 447\nvalue = 37.4"] ;
0 -> 1 [labeldistance=2.5, labelangle=45, headlabel="True"] ;
2 [label="squared_error = 2466.6\nsamples = 445\nvalue = 36.3"] ;
1 -> 2 ;
3 [label="squared_error = 346.7\nsamples = 2\nvalue = 230.8"] ;
1 -> 3 ;
4 [label="reanalysis_air_temp_k <= 300.2\nsquared_error = 33570.0\nsamples = 3\nvalue = 198.0"] ;
0 -> 4 [labeldistance=2.5, labelangle=-45, headlabel="False"] ;
5 [label="squared_error = 162.0\nsamples = 2\nvalue = 15.0"] ;
4 -> 5 ;
6 [label="squared_error = 0.0\nsamples = 1\nvalue = 381.0"] ;
4 -> 6 ;
}