digraph Tree {
node [shape=box, style="rounded", color="black", fontname="helvetica"] ;
edge [fontname="helvetica"] ;
0 [label="reanalysis_dew_point_temp_k <= 297.5\nsquared_error = 2915.7\nsamples = 446\nvalue = 36.5"] ;
1 [label="station_max_temp_c <= 34.7\nsquared_error = 2757.8\nsamples = 444\nvalue = 35.7"] ;
0 -> 1 [labeldistance=2.5, labelangle=45, headlabel="True"] ;
2 [label="reanalysis_relative_humidity_percent <= 82.2\nsquared_error = 2342.7\nsamples = 440\nvalue = 34.6"] ;
1 -> 2 ;
3 [label="station_min_temp_c <= 24.1\nsquared_error = 1621.2\nsamples = 365\nvalue = 29.6"] ;
2 -> 3 ;
4 [label="reanalysis_precip_amt_kg_per_m2 <= 69.7\nsquared_error = 681.7\nsamples = 312\nvalue = 26.3"] ;
3 -> 4 ;
5 [label="reanalysis_precip_amt_kg_per_m2 <= 11.3\nsquared_error = 531.1\nsamples = 305\nvalue = 25.4"] ;
4 -> 5 ;
6 [label="reanalysis_tdtr_k <= 2.1\nsquared_error = 278.1\nsamples = 94\nvalue = 19.6"] ;
5 -> 6 ;
7 [label="station_diur_temp_rng_c <= 5.8\nsquared_error = 30.2\nsamples = 2\nvalue = 83.5"] ;
6 -> 7 ;
8 [label="squared_error = 0.0\nsamples = 1\nvalue = 89.0"] ;
7 -> 8 ;
9 [label="squared_error = 0.0\nsamples = 1\nvalue = 78.0"] ;
7 -> 9 ;
10 [label="station_avg_temp_c <= 26.3\nsquared_error = 223.7\nsamples = 92\nvalue = 18.7"] ;
6 -> 10 ;
11 [label="reanalysis_relative_humidity_percent <= 76.3\nsquared_error = 223.5\nsamples = 43\nvalue = 24.5"] ;
10 -> 11 ;
12 [label="reanalysis_max_air_temp_k <= 300.7\nsquared_error = 179.0\nsamples = 36\nvalue = 21.5"] ;
11 -> 12 ;
13 [label="reanalysis_air_temp_k <= 298.3\nsquared_error = 168.8\nsamples = 28\nvalue = 24.7"] ;
12 -> 13 ;
14 [label="station_avg_temp_c <= 24.9\nsquared_error = 108.0\nsamples = 26\nvalue = 22.6"] ;
13 -> 14 ;
15 [label="reanalysis_relative_humidity_percent <= 75.1\nsquared_error = 118.6\nsamples = 13\nvalue = 27.8"] ;
14 -> 15 ;
16 [label="ndvi_nw <= 0.2\nsquared_error = 81.9\nsamples = 12\nvalue = 26.3"] ;
15 -> 16 ;
17 [label="station_precip_mm <= 1.3\nsquared_error = 54.5\nsamples = 10\nvalue = 24.4"] ;
16 -> 17 ;
18 [label="ndvi_se <= 0.2\nsquared_error = 3.6\nsamples = 2\nvalue = 35.7"] ;
17 -> 18 ;
19 [label="squared_error = 0.0\nsamples = 1\nvalue = 37.0"] ;
18 -> 19 ;
20 [label="squared_error = 0.0\nsamples = 1\nvalue = 33.0"] ;
18 -> 20 ;
21 [label="reanalysis_specific_humidity_g_per_kg <= 14.2\nsquared_error = 30.0\nsamples = 8\nvalue = 21.8"] ;
17 -> 21 ;
22 [label="reanalysis_max_air_temp_k <= 299.9\nsquared_error = 8.0\nsamples = 6\nvalue = 18.6"] ;
21 -> 22 ;
23 [label="station_max_temp_c <= 28.6\nsquared_error = 1.6\nsamples = 4\nvalue = 19.9"] ;
22 -> 23 ;
24 [label="squared_error = 0.0\nsamples = 2\nvalue = 18.0"] ;
23 -> 24 ;
25 [label="reanalysis_dew_point_temp_k <= 292.3\nsquared_error = 0.2\nsamples = 2\nvalue = 20.6"] ;
23 -> 25 ;
26 [label="squared_error = 0.0\nsamples = 1\nvalue = 21.0"] ;
25 -> 26 ;
27 [label="squared_error = 0.0\nsamples = 1\nvalue = 20.0"] ;
25 -> 27 ;
28 [label="reanalysis_relative_humidity_percent <= 72.3\nsquared_error = 4.0\nsamples = 2\nvalue = 14.0"] ;
22 -> 28 ;
29 [label="squared_error = 0.0\nsamples = 1\nvalue = 16.0"] ;
28 -> 29 ;
30 [label="squared_error = 0.0\nsamples = 1\nvalue = 12.0"] ;
28 -> 30 ;
31 [label="reanalysis_min_air_temp_k <= 295.7\nsquared_error = 4.0\nsamples = 2\nvalue = 29.0"] ;
21 -> 31 ;
32 [label="squared_error = 0.0\nsamples = 1\nvalue = 27.0"] ;
31 -> 32 ;
33 [label="squared_error = 0.0\nsamples = 1\nvalue = 31.0"] ;
31 -> 33 ;
34 [label="reanalysis_max_air_temp_k <= 300.4\nsquared_error = 25.0\nsamples = 2\nvalue = 42.0"] ;
16 -> 34 ;
35 [label="squared_error = 0.0\nsamples = 1\nvalue = 37.0"] ;
34 -> 35 ;
36 [label="squared_error = 0.0\nsamples = 1\nvalue = 47.0"] ;
34 -> 36 ;
37 [label="squared_error = 0.0\nsamples = 1\nvalue = 55.0"] ;
15 -> 37 ;
38 [label="station_diur_temp_rng_c <= 6.8\nsquared_error = 52.0\nsamples = 13\nvalue = 18.0"] ;
14 -> 38 ;
39 [label="reanalysis_relative_humidity_percent <= 74.3\nsquared_error = 1.2\nsamples = 3\nvalue = 8.2"] ;
38 -> 39 ;
40 [label="station_precip_mm <= 4.5\nsquared_error = 0.2\nsamples = 2\nvalue = 7.7"] ;
39 -> 40 ;
41 [label="squared_error = 0.0\nsamples = 1\nvalue = 8.0"] ;
40 -> 41 ;
42 [label="squared_error = 0.0\nsamples = 1\nvalue = 7.0"] ;
40 -> 42 ;
43 [label="squared_error = 0.0\nsamples = 1\nvalue = 10.0"] ;
39 -> 43 ;
44 [label="station_avg_temp_c <= 25.6\nsquared_error = 36.7\nsamples = 10\nvalue = 20.2"] ;
38 -> 44 ;
45 [label="reanalysis_precip_amt_kg_per_m2 <= 1.9\nsquared_error = 14.7\nsamples = 6\nvalue = 16.0"] ;
44 -> 45 ;
46 [label="squared_error = 0.0\nsamples = 1\nvalue = 21.0"] ;
45 -> 46 ;
47 [label="station_max_temp_c <= 29.7\nsquared_error = 9.7\nsamples = 5\nvalue = 14.6"] ;
45 -> 47 ;
48 [label="reanalysis_dew_point_temp_k <= 292.1\nsquared_error = 2.2\nsamples = 2\nvalue = 18.5"] ;
47 -> 48 ;
49 [label="squared_error = 0.0\nsamples = 1\nvalue = 17.0"] ;
48 -> 49 ;
50 [label="squared_error = 0.0\nsamples = 1\nvalue = 20.0"] ;
48 -> 50 ;
51 [label="station_avg_temp_c <= 25.2\nsquared_error = 4.0\nsamples = 3\nvalue = 13.0"] ;
47 -> 51 ;
52 [label="squared_error = 0.0\nsamples = 1\nvalue = 9.0"] ;
51 -> 52 ;
53 [label="squared_error = 0.0\nsamples = 2\nvalue = 14.0"] ;
51 -> 53 ;
54 [label="reanalysis_avg_temp_k <= 297.8\nsquared_error = 18.5\nsamples = 4\nvalue = 25.0"] ;
44 -> 54 ;
55 [label="station_precip_mm <= 8.8\nsquared_error = 6.2\nsamples = 2\nvalue = 21.5"] ;
54 -> 55 ;
56 [label="squared_error = 0.0\nsamples = 1\nvalue = 19.0"] ;
55 -> 56 ;
57 [label="squared_error = 0.0\nsamples = 1\nvalue = 24.0"] ;
55 -> 57 ;
58 [label="reanalysis_avg_temp_k <= 298.0\nsquared_error = 6.2\nsamples = 2\nvalue = 28.5"] ;
54 -> 58 ;
59 [label="squared_error = 0.0\nsamples = 1\nvalue = 31.0"] ;
58 -> 59 ;
60 [label="squared_error = 0.0\nsamples = 1\nvalue = 26.0"] ;
58 -> 60 ;
61 [label="ndvi_ne <= 0.1\nsquared_error = 213.6\nsamples = 2\nvalue = 51.3"] ;
13 -> 61 ;
62 [label="squared_error = 0.0\nsamples = 1\nvalue = 72.0"] ;
61 -> 62 ;
63 [label="squared_error = 0.0\nsamples = 1\nvalue = 41.0"] ;
61 -> 63 ;
64 [label="ndvi_nw <= 0.1\nsquared_error = 30.4\nsamples = 8\nvalue = 9.3"] ;
12 -> 64 ;
65 [label="reanalysis_air_temp_k <= 299.1\nsquared_error = 6.0\nsamples = 4\nvalue = 5.4"] ;
64 -> 65 ;
66 [label="reanalysis_relative_humidity_percent <= 73.9\nsquared_error = 2.7\nsamples = 3\nvalue = 7.2"] ;
65 -> 66 ;
67 [label="squared_error = 0.0\nsamples = 1\nvalue = 10.0"] ;
66 -> 67 ;
68 [label="reanalysis_tdtr_k <= 2.9\nsquared_error = 0.2\nsamples = 2\nvalue = 6.3"] ;
66 -> 68 ;
69 [label="squared_error = 0.0\nsamples = 1\nvalue = 6.0"] ;
68 -> 69 ;
70 [label="squared_error = 0.0\nsamples = 1\nvalue = 7.0"] ;
68 -> 70 ;
71 [label="squared_error = 0.0\nsamples = 1\nvalue = 3.0"] ;
65 -> 71 ;
72 [label="reanalysis_max_air_temp_k <= 300.8\nsquared_error = 2.0\nsamples = 4\nvalue = 16.0"] ;
64 -> 72 ;
73 [label="squared_error = 0.0\nsamples = 1\nvalue = 18.0"] ;
72 -> 73 ;
74 [label="precipitation_amt_mm <= 24.9\nsquared_error = 0.9\nsamples = 3\nvalue = 15.3"] ;
72 -> 74 ;
75 [label="squared_error = 0.0\nsamples = 2\nvalue = 16.0"] ;
74 -> 75 ;
76 [label="squared_error = 0.0\nsamples = 1\nvalue = 14.0"] ;
74 -> 76 ;
77 [label="reanalysis_relative_humidity_percent <= 76.9\nsquared_error = 150.6\nsamples = 7\nvalue = 40.8"] ;
11 -> 77 ;
78 [label="squared_error = 0.0\nsamples = 1\nvalue = 59.0"] ;
77 -> 78 ;
79 [label="reanalysis_avg_temp_k <= 297.6\nsquared_error = 84.7\nsamples = 6\nvalue = 36.2"] ;
77 -> 79 ;
80 [label="squared_error = 0.0\nsamples = 1\nvalue = 17.0"] ;
79 -> 80 ;
81 [label="reanalysis_relative_humidity_percent <= 77.8\nsquared_error = 36.3\nsamples = 5\nvalue = 39.0"] ;
79 -> 81 ;
82 [label="reanalysis_tdtr_k <= 2.6\nsquared_error = 3.8\nsamples = 3\nvalue = 35.4"] ;
81 -> 82 ;
83 [label="squared_error = 0.0\nsamples = 2\nvalue = 33.0"] ;
82 -> 83 ;
84 [label="squared_error = 0.0\nsamples = 1\nvalue = 37.0"] ;
82 -> 84 ;
85 [label="reanalysis_min_air_temp_k <= 295.9\nsquared_error = 4.0\nsamples = 2\nvalue = 48.0"] ;
81 -> 85 ;
86 [label="squared_error = 0.0\nsamples = 1\nvalue = 46.0"] ;
85 -> 86 ;
87 [label="squared_error = 0.0\nsamples = 1\nvalue = 50.0"] ;
85 -> 87 ;
88 [label="reanalysis_avg_temp_k <= 300.9\nsquared_error = 174.6\nsamples = 49\nvalue = 14.1"] ;
10 -> 88 ;
89 [label="reanalysis_precip_amt_kg_per_m2 <= 0.9\nsquared_error = 155.3\nsamples = 47\nvalue = 13.1"] ;
88 -> 89 ;
90 [label="squared_error = 0.0\nsamples = 1\nvalue = 56.0"] ;
89 -> 90 ;
91 [label="reanalysis_tdtr_k <= 2.4\nsquared_error = 132.4\nsamples = 46\nvalue = 12.5"] ;
89 -> 91 ;
92 [label="squared_error = 0.0\nsamples = 1\nvalue = 55.0"] ;
91 -> 92 ;
93 [label="reanalysis_tdtr_k <= 2.6\nsquared_error = 109.5\nsamples = 45\nvalue = 11.9"] ;
91 -> 93 ;
94 [label="ndvi_nw <= 0.0\nsquared_error = 269.6\nsamples = 12\nvalue = 18.6"] ;
93 -> 94 ;
95 [label="squared_error = 0.0\nsamples = 1\nvalue = 61.0"] ;
94 -> 95 ;
96 [label="reanalysis_tdtr_k <= 2.5\nsquared_error = 159.9\nsamples = 11\nvalue = 15.8"] ;
94 -> 96 ;
97 [label="station_max_temp_c <= 32.5\nsquared_error = 72.4\nsamples = 10\nvalue = 10.8"] ;
96 -> 97 ;
98 [label="station_diur_temp_rng_c <= 7.3\nsquared_error = 17.4\nsamples = 7\nvalue = 5.2"] ;
97 -> 98 ;
99 [label="reanalysis_max_air_temp_k <= 301.2\nsquared_error = 1.2\nsamples = 4\nvalue = 1.5"] ;
98 -> 99 ;
100 [label="reanalysis_relative_humidity_percent <= 77.3\nsquared_error = 0.2\nsamples = 2\nvalue = 2.5"] ;
99 -> 100 ;
101 [label="squared_error = 0.0\nsamples = 1\nvalue = 3.0"] ;
100 -> 101 ;
102 [label="squared_error = 0.0\nsamples = 1\nvalue = 2.0"] ;
100 -> 102 ;
103 [label="ndvi_se <= 0.2\nsquared_error = 0.2\nsamples = 2\nvalue = 0.5"] ;
99 -> 103 ;
104 [label="squared_error = 0.0\nsamples = 1\nvalue = 0.0"] ;
103 -> 104 ;
105 [label="squared_error = 0.0\nsamples = 1\nvalue = 1.0"] ;
103 -> 105 ;
106 [label="reanalysis_avg_temp_k <= 298.4\nsquared_error = 5.5\nsamples = 3\nvalue = 9.0"] ;
98 -> 106 ;
107 [label="squared_error = 0.0\nsamples = 1\nvalue = 13.0"] ;
106 -> 107 ;
108 [label="reanalysis_tdtr_k <= 2.4\nsquared_error = 0.2\nsamples = 2\nvalue = 7.7"] ;
106 -> 108 ;
109 [label="squared_error = 0.0\nsamples = 1\nvalue = 7.0"] ;
108 -> 109 ;
110 [label="squared_error = 0.0\nsamples = 1\nvalue = 8.0"] ;
108 -> 110 ;
111 [label="station_max_temp_c <= 33.6\nsquared_error = 0.7\nsamples = 3\nvalue = 21.8"] ;
97 -> 111 ;
112 [label="reanalysis_sat_precip_amt_mm <= 25.9\nsquared_error = 0.2\nsamples = 2\nvalue = 22.5"] ;
111 -> 112 ;
113 [label="squared_error = 0.0\nsamples = 1\nvalue = 22.0"] ;
112 -> 113 ;
114 [label="squared_error = 0.0\nsamples = 1\nvalue = 23.0"] ;
112 -> 114 ;
115 [label="squared_error = 0.0\nsamples = 1\nvalue = 21.0"] ;
111 -> 115 ;
116 [label="squared_error = 0.0\nsamples = 1\nvalue = 36.0"] ;
96 -> 116 ;
117 [label="ndvi_sw <= 0.1\nsquared_error = 49.4\nsamples = 33\nvalue = 10.1"] ;
93 -> 117 ;
118 [label="station_diur_temp_rng_c <= 7.0\nsquared_error = 54.8\nsamples = 5\nvalue = 25.8"] ;
117 -> 118 ;
119 [label="station_max_temp_c <= 30.3\nsquared_error = 16.0\nsamples = 2\nvalue = 34.0"] ;
118 -> 119 ;
120 [label="squared_error = 0.0\nsamples = 1\nvalue = 38.0"] ;
119 -> 120 ;
121 [label="squared_error = 0.0\nsamples = 1\nvalue = 30.0"] ;
119 -> 121 ;
122 [label="station_precip_mm <= 4.6\nsquared_error = 24.2\nsamples = 3\nvalue = 21.8"] ;
118 -> 122 ;
123 [label="squared_error = 0.0\nsamples = 1\nvalue = 30.0"] ;
122 -> 123 ;
124 [label="reanalysis_relative_humidity_percent <= 76.8\nsquared_error = 2.0\nsamples = 2\nvalue = 19.0"] ;
122 -> 124 ;
125 [label="squared_error = 0.0\nsamples = 1\nvalue = 17.0"] ;
124 -> 125 ;
126 [label="squared_error = 0.0\nsamples = 1\nvalue = 20.0"] ;
124 -> 126 ;
127 [label="ndvi_se <= 0.2\nsquared_error = 16.7\nsamples = 28\nvalue = 8.2"] ;
117 -> 127 ;
128 [label="station_precip_mm <= 2.7\nsquared_error = 21.1\nsamples = 13\nvalue = 11.0"] ;
127 -> 128 ;
129 [label="reanalysis_tdtr_k <= 3.1\nsquared_error = 7.6\nsamples = 8\nvalue = 8.4"] ;
128 -> 129 ;
130 [label="reanalysis_tdtr_k <= 2.8\nsquared_error = 5.6\nsamples = 6\nvalue = 7.1"] ;
129 -> 130 ;
131 [label="ndvi_nw <= 0.1\nsquared_error = 2.0\nsamples = 3\nvalue = 9.0"] ;
130 -> 131 ;
132 [label="squared_error = 0.0\nsamples = 2\nvalue = 8.0"] ;
131 -> 132 ;
133 [label="squared_error = 0.0\nsamples = 1\nvalue = 11.0"] ;
131 -> 133 ;
134 [label="ndvi_sw <= 0.2\nsquared_error = 3.7\nsamples = 3\nvalue = 5.8"] ;
130 -> 134 ;
135 [label="station_precip_mm <= 0.4\nsquared_error = 0.2\nsamples = 2\nvalue = 4.7"] ;
134 -> 135 ;
136 [label="squared_error = 0.0\nsamples = 1\nvalue = 4.0"] ;
135 -> 136 ;
137 [label="squared_error = 0.0\nsamples = 1\nvalue = 5.0"] ;
135 -> 137 ;
138 [label="squared_error = 0.0\nsamples = 1\nvalue = 9.0"] ;
134 -> 138 ;
139 [label="reanalysis_specific_humidity_g_per_kg <= 15.9\nsquared_error = 0.2\nsamples = 2\nvalue = 11.3"] ;
129 -> 139 ;
140 [label="squared_error = 0.0\nsamples = 1\nvalue = 12.0"] ;
139 -> 140 ;
141 [label="squared_error = 0.0\nsamples = 1\nvalue = 11.0"] ;
139 -> 141 ;
142 [label="reanalysis_min_air_temp_k <= 297.5\nsquared_error = 20.1\nsamples = 5\nvalue = 13.9"] ;
128 -> 142 ;
143 [label="station_max_temp_c <= 32.8\nsquared_error = 0.8\nsamples = 2\nvalue = 17.5"] ;
142 -> 143 ;
144 [label="squared_error = 0.0\nsamples = 1\nvalue = 17.0"] ;
143 -> 144 ;
145 [label="squared_error = 0.0\nsamples = 1\nvalue = 19.0"] ;
143 -> 145 ;
146 [label="station_precip_mm <= 6.8\nsquared_error = 16.8\nsamples = 3\nvalue = 11.0"] ;
142 -> 146 ;
147 [label="squared_error = 0.0\nsamples = 1\nvalue = 16.0"] ;
146 -> 147 ;
148 [label="reanalysis_tdtr_k <= 3.3\nsquared_error = 0.2\nsamples = 2\nvalue = 7.7"] ;
146 -> 148 ;
149 [label="squared_error = 0.0\nsamples = 1\nvalue = 7.0"] ;
148 -> 149 ;
150 [label="squared_error = 0.0\nsamples = 1\nvalue = 8.0"] ;
148 -> 150 ;
151 [label="reanalysis_max_air_temp_k <= 302.6\nsquared_error = 7.3\nsamples = 15\nvalue = 6.6"] ;
127 -> 151 ;
152 [label="reanalysis_tdtr_k <= 2.6\nsquared_error = 4.8\nsamples = 14\nvalue = 6.1"] ;
151 -> 152 ;
153 [label="squared_error = 0.0\nsamples = 1\nvalue = 10.0"] ;
152 -> 153 ;
154 [label="station_precip_mm <= 0.6\nsquared_error = 2.9\nsamples = 13\nvalue = 5.5"] ;
152 -> 154 ;
155 [label="ndvi_nw <= 0.2\nsquared_error = 0.2\nsamples = 2\nvalue = 8.7"] ;
154 -> 155 ;
156 [label="squared_error = 0.0\nsamples = 1\nvalue = 8.0"] ;
155 -> 156 ;
157 [label="squared_error = 0.0\nsamples = 1\nvalue = 9.0"] ;
155 -> 157 ;
158 [label="station_max_temp_c <= 32.0\nsquared_error = 1.7\nsamples = 11\nvalue = 5.1"] ;
154 -> 158 ;
159 [label="ndvi_nw <= -0.0\nsquared_error = 0.4\nsamples = 4\nvalue = 5.9"] ;
158 -> 159 ;
160 [label="squared_error = 0.0\nsamples = 1\nvalue = 5.0"] ;
159 -> 160 ;
161 [label="ndvi_nw <= 0.1\nsquared_error = 0.2\nsamples = 3\nvalue = 6.2"] ;
159 -> 161 ;
162 [label="squared_error = 0.0\nsamples = 1\nvalue = 7.0"] ;
161 -> 162 ;
163 [label="squared_error = 0.0\nsamples = 2\nvalue = 6.0"] ;
161 -> 163 ;
164 [label="reanalysis_precip_amt_kg_per_m2 <= 4.5\nsquared_error = 1.6\nsamples = 7\nvalue = 4.2"] ;
158 -> 164 ;
165 [label="reanalysis_dew_point_temp_k <= 293.9\nsquared_error = 0.2\nsamples = 3\nvalue = 5.8"] ;
164 -> 165 ;
166 [label="squared_error = 0.0\nsamples = 2\nvalue = 6.0"] ;
165 -> 166 ;
167 [label="squared_error = 0.0\nsamples = 1\nvalue = 5.0"] ;
165 -> 167 ;
168 [label="station_max_temp_c <= 33.6\nsquared_error = 0.2\nsamples = 4\nvalue = 3.3"] ;
164 -> 168 ;
169 [label="squared_error = 0.0\nsamples = 3\nvalue = 3.0"] ;
168 -> 169 ;
170 [label="squared_error = 0.0\nsamples = 1\nvalue = 4.0"] ;
168 -> 170 ;
171 [label="squared_error = 0.0\nsamples = 1\nvalue = 12.0"] ;
151 -> 171 ;
172 [label="ndvi_sw <= 0.1\nsquared_error = 0.2\nsamples = 2\nvalue = 39.3"] ;
88 -> 172 ;
173 [label="squared_error = 0.0\nsamples = 1\nvalue = 39.0"] ;
172 -> 173 ;
174 [label="squared_error = 0.0\nsamples = 1\nvalue = 40.0"] ;
172 -> 174 ;
175 [label="reanalysis_avg_temp_k <= 298.5\nsquared_error = 619.9\nsamples = 211\nvalue = 27.9"] ;
5 -> 175 ;
176 [label="ndvi_sw <= 0.3\nsquared_error = 254.4\nsamples = 80\nvalue = 21.1"] ;
175 -> 176 ;
177 [label="ndvi_sw <= 0.1\nsquared_error = 180.1\nsamples = 78\nvalue = 20.0"] ;
176 -> 177 ;
178 [label="reanalysis_tdtr_k <= 2.1\nsquared_error = 18.8\nsamples = 2\nvalue = 44.5"] ;
177 -> 178 ;
179 [label="squared_error = 0.0\nsamples = 1\nvalue = 47.0"] ;
178 -> 179 ;
180 [label="squared_error = 0.0\nsamples = 1\nvalue = 37.0"] ;
178 -> 180 ;
181 [label="station_avg_temp_c <= 26.2\nsquared_error = 164.3\nsamples = 76\nvalue = 19.2"] ;
177 -> 181 ;
182 [label="reanalysis_relative_humidity_percent <= 77.8\nsquared_error = 158.6\nsamples = 65\nvalue = 20.7"] ;
181 -> 182 ;
183 [label="station_diur_temp_rng_c <= 7.1\nsquared_error = 100.0\nsamples = 36\nvalue = 17.2"] ;
182 -> 183 ;
184 [label="station_precip_mm <= 19.0\nsquared_error = 73.6\nsamples = 30\nvalue = 15.8"] ;
183 -> 184 ;
185 [label="station_diur_temp_rng_c <= 6.6\nsquared_error = 68.2\nsamples = 18\nvalue = 12.0"] ;
184 -> 185 ;
186 [label="station_precip_mm <= 15.1\nsquared_error = 62.4\nsamples = 7\nvalue = 18.2"] ;
185 -> 186 ;
187 [label="ndvi_sw <= 0.2\nsquared_error = 15.2\nsamples = 6\nvalue = 15.8"] ;
186 -> 187 ;
188 [label="precipitation_amt_mm <= 42.8\nsquared_error = 5.4\nsamples = 4\nvalue = 18.4"] ;
187 -> 188 ;
189 [label="ndvi_sw <= 0.1\nsquared_error = 0.2\nsamples = 3\nvalue = 17.2"] ;
188 -> 189 ;
190 [label="squared_error = 0.0\nsamples = 2\nvalue = 17.0"] ;
189 -> 190 ;
191 [label="squared_error = 0.0\nsamples = 1\nvalue = 18.0"] ;
189 -> 191 ;
192 [label="squared_error = 0.0\nsamples = 1\nvalue = 23.0"] ;
188 -> 192 ;
193 [label="station_max_temp_c <= 30.6\nsquared_error = 0.2\nsamples = 2\nvalue = 11.3"] ;
187 -> 193 ;
194 [label="squared_error = 0.0\nsamples = 1\nvalue = 12.0"] ;
193 -> 194 ;
195 [label="squared_error = 0.0\nsamples = 1\nvalue = 11.0"] ;
193 -> 195 ;
196 [label="squared_error = 0.0\nsamples = 1\nvalue = 38.0"] ;
186 -> 196 ;
197 [label="station_precip_mm <= 12.1\nsquared_error = 45.3\nsamples = 11\nvalue = 9.2"] ;
185 -> 197 ;
198 [label="reanalysis_max_air_temp_k <= 299.1\nsquared_error = 36.5\nsamples = 5\nvalue = 14.6"] ;
197 -> 198 ;
199 [label="squared_error = 0.0\nsamples = 1\nvalue = 4.0"] ;
198 -> 199 ;
200 [label="reanalysis_tdtr_k <= 2.2\nsquared_error = 6.0\nsamples = 4\nvalue = 17.6"] ;
198 -> 200 ;
201 [label="squared_error = 0.0\nsamples = 1\nvalue = 20.0"] ;
200 -> 201 ;
202 [label="reanalysis_dew_point_temp_k <= 293.3\nsquared_error = 2.7\nsamples = 3\nvalue = 15.8"] ;
200 -> 202 ;
203 [label="station_avg_temp_c <= 25.1\nsquared_error = 0.2\nsamples = 2\nvalue = 16.7"] ;
202 -> 203 ;
204 [label="squared_error = 0.0\nsamples = 1\nvalue = 17.0"] ;
203 -> 204 ;
205 [label="squared_error = 0.0\nsamples = 1\nvalue = 16.0"] ;
203 -> 205 ;
206 [label="squared_error = 0.0\nsamples = 1\nvalue = 13.0"] ;
202 -> 206 ;
207 [label="reanalysis_tdtr_k <= 2.1\nsquared_error = 9.1\nsamples = 6\nvalue = 4.7"] ;
197 -> 207 ;
208 [label="reanalysis_air_temp_k <= 297.1\nsquared_error = 0.8\nsamples = 2\nvalue = 8.5"] ;
207 -> 208 ;
209 [label="squared_error = 0.0\nsamples = 1\nvalue = 9.0"] ;
208 -> 209 ;
210 [label="squared_error = 0.0\nsamples = 1\nvalue = 7.0"] ;
208 -> 210 ;
211 [label="station_max_temp_c <= 30.0\nsquared_error = 1.1\nsamples = 4\nvalue = 2.6"] ;
207 -> 211 ;
212 [label="reanalysis_relative_humidity_percent <= 74.1\nsquared_error = 0.2\nsamples = 3\nvalue = 3.2"] ;
211 -> 212 ;
213 [label="squared_error = 0.0\nsamples = 1\nvalue = 4.0"] ;
212 -> 213 ;
214 [label="squared_error = 0.0\nsamples = 2\nvalue = 3.0"] ;
212 -> 214 ;
215 [label="squared_error = 0.0\nsamples = 1\nvalue = 1.0"] ;
211 -> 215 ;
216 [label="station_avg_temp_c <= 25.6\nsquared_error = 39.0\nsamples = 12\nvalue = 20.6"] ;
184 -> 216 ;
217 [label="station_diur_temp_rng_c <= 6.7\nsquared_error = 18.8\nsamples = 9\nvalue = 22.8"] ;
216 -> 217 ;
218 [label="reanalysis_tdtr_k <= 2.9\nsquared_error = 9.7\nsamples = 7\nvalue = 21.3"] ;
217 -> 218 ;
219 [label="reanalysis_avg_temp_k <= 297.4\nsquared_error = 4.1\nsamples = 6\nvalue = 22.3"] ;
218 -> 219 ;
220 [label="squared_error = 0.0\nsamples = 1\nvalue = 28.0"] ;
219 -> 220 ;
221 [label="ndvi_sw <= 0.2\nsquared_error = 1.5\nsamples = 5\nvalue = 21.8"] ;
219 -> 221 ;
222 [label="station_avg_temp_c <= 24.3\nsquared_error = 0.2\nsamples = 2\nvalue = 20.6"] ;
221 -> 222 ;
223 [label="squared_error = 0.0\nsamples = 1\nvalue = 20.0"] ;
222 -> 223 ;
224 [label="squared_error = 0.0\nsamples = 1\nvalue = 21.0"] ;
222 -> 224 ;
225 [label="reanalysis_max_air_temp_k <= 299.5\nsquared_error = 0.5\nsamples = 3\nvalue = 22.7"] ;
221 -> 225 ;
226 [label="reanalysis_tdtr_k <= 2.0\nsquared_error = 0.2\nsamples = 2\nvalue = 23.2"] ;
225 -> 226 ;
227 [label="squared_error = 0.0\nsamples = 1\nvalue = 23.0"] ;
226 -> 227 ;
228 [label="squared_error = 0.0\nsamples = 1\nvalue = 24.0"] ;
226 -> 228 ;
229 [label="squared_error = 0.0\nsamples = 1\nvalue = 22.0"] ;
225 -> 229 ;
230 [label="squared_error = 0.0\nsamples = 1\nvalue = 15.0"] ;
218 -> 230 ;
231 [label="ndvi_ne <= -0.0\nsquared_error = 2.0\nsamples = 2\nvalue = 30.0"] ;
217 -> 231 ;
232 [label="squared_error = 0.0\nsamples = 1\nvalue = 31.0"] ;
231 -> 232 ;
233 [label="squared_error = 0.0\nsamples = 1\nvalue = 28.0"] ;
231 -> 233 ;
234 [label="reanalysis_dew_point_temp_k <= 293.8\nsquared_error = 30.6\nsamples = 3\nvalue = 12.6"] ;
216 -> 234 ;
235 [label="reanalysis_min_air_temp_k <= 296.2\nsquared_error = 4.0\nsamples = 2\nvalue = 6.0"] ;
234 -> 235 ;
236 [label="squared_error = 0.0\nsamples = 1\nvalue = 8.0"] ;
235 -> 236 ;
237 [label="squared_error = 0.0\nsamples = 1\nvalue = 4.0"] ;
235 -> 237 ;
238 [label="squared_error = 0.0\nsamples = 1\nvalue = 17.0"] ;
234 -> 238 ;
239 [label="ndvi_nw <= 0.1\nsquared_error = 161.8\nsamples = 6\nvalue = 28.1"] ;
183 -> 239 ;
240 [label="reanalysis_sat_precip_amt_mm <= 12.9\nsquared_error = 28.4\nsamples = 4\nvalue = 21.0"] ;
239 -> 240 ;
241 [label="ndvi_se <= 0.1\nsquared_error = 0.2\nsamples = 2\nvalue = 16.7"] ;
240 -> 241 ;
242 [label="squared_error = 0.0\nsamples = 1\nvalue = 17.0"] ;
241 -> 242 ;
243 [label="squared_error = 0.0\nsamples = 1\nvalue = 16.0"] ;
241 -> 243 ;
244 [label="station_avg_temp_c <= 24.8\nsquared_error = 0.2\nsamples = 2\nvalue = 27.5"] ;
240 -> 244 ;
245 [label="squared_error = 0.0\nsamples = 1\nvalue = 28.0"] ;
244 -> 245 ;
246 [label="squared_error = 0.0\nsamples = 1\nvalue = 27.0"] ;
244 -> 246 ;
247 [label="ndvi_sw <= 0.2\nsquared_error = 49.0\nsamples = 2\nvalue = 46.0"] ;
239 -> 247 ;
248 [label="squared_error = 0.0\nsamples = 1\nvalue = 53.0"] ;
247 -> 248 ;
249 [label="squared_error = 0.0\nsamples = 1\nvalue = 39.0"] ;
247 -> 249 ;
250 [label="ndvi_sw <= 0.2\nsquared_error = 200.1\nsamples = 29\nvalue = 25.3"] ;
182 -> 250 ;
251 [label="precipitation_amt_mm <= 28.4\nsquared_error = 196.3\nsamples = 13\nvalue = 32.6"] ;
250 -> 251 ;
252 [label="station_precip_mm <= 15.5\nsquared_error = 83.0\nsamples = 11\nvalue = 29.1"] ;
251 -> 252 ;
253 [label="reanalysis_max_air_temp_k <= 299.9\nsquared_error = 27.1\nsamples = 6\nvalue = 34.7"] ;
252 -> 253 ;
254 [label="reanalysis_air_temp_k <= 297.2\nsquared_error = 24.5\nsamples = 3\nvalue = 40.0"] ;
253 -> 254 ;
255 [label="squared_error = 0.0\nsamples = 1\nvalue = 33.0"] ;
254 -> 255 ;
256 [label="station_min_temp_c <= 21.4\nsquared_error = 10.9\nsamples = 2\nvalue = 42.3"] ;
254 -> 256 ;
257 [label="squared_error = 0.0\nsamples = 1\nvalue = 47.0"] ;
256 -> 257 ;
258 [label="squared_error = 0.0\nsamples = 1\nvalue = 40.0"] ;
256 -> 258 ;
259 [label="reanalysis_min_air_temp_k <= 295.8\nsquared_error = 3.6\nsamples = 3\nvalue = 31.7"] ;
253 -> 259 ;
260 [label="reanalysis_avg_temp_k <= 298.3\nsquared_error = 1.0\nsamples = 2\nvalue = 32.8"] ;
259 -> 260 ;
261 [label="squared_error = 0.0\nsamples = 1\nvalue = 32.0"] ;
260 -> 261 ;
262 [label="squared_error = 0.0\nsamples = 1\nvalue = 34.0"] ;
260 -> 262 ;
263 [label="squared_error = 0.0\nsamples = 1\nvalue = 29.0"] ;
259 -> 263 ;
264 [label="reanalysis_specific_humidity_g_per_kg <= 14.8\nsquared_error = 43.3\nsamples = 5\nvalue = 20.3"] ;
252 -> 264 ;
265 [label="squared_error = 0.0\nsamples = 1\nvalue = 5.0"] ;
264 -> 265 ;
266 [label="station_max_temp_c <= 30.9\nsquared_error = 5.1\nsamples = 4\nvalue = 22.8"] ;
264 -> 266 ;
267 [label="ndvi_se <= 0.2\nsquared_error = 0.9\nsamples = 2\nvalue = 20.7"] ;
266 -> 267 ;
268 [label="squared_error = 0.0\nsamples = 1\nvalue = 20.0"] ;
267 -> 268 ;
269 [label="squared_error = 0.0\nsamples = 1\nvalue = 22.0"] ;
267 -> 269 ;
270 [label="squared_error = 0.0\nsamples = 2\nvalue = 25.0"] ;
266 -> 270 ;
271 [label="station_min_temp_c <= 20.9\nsquared_error = 121.0\nsamples = 2\nvalue = 64.0"] ;
251 -> 271 ;
272 [label="squared_error = 0.0\nsamples = 1\nvalue = 53.0"] ;
271 -> 272 ;
273 [label="squared_error = 0.0\nsamples = 1\nvalue = 75.0"] ;
271 -> 273 ;
274 [label="station_min_temp_c <= 20.9\nsquared_error = 121.2\nsamples = 16\nvalue = 19.2"] ;
250 -> 274 ;
275 [label="reanalysis_relative_humidity_percent <= 79.0\nsquared_error = 100.0\nsamples = 2\nvalue = 46.0"] ;
274 -> 275 ;
276 [label="squared_error = 0.0\nsamples = 1\nvalue = 36.0"] ;
275 -> 276 ;
277 [label="squared_error = 0.0\nsamples = 1\nvalue = 56.0"] ;
275 -> 277 ;
278 [label="reanalysis_specific_humidity_g_per_kg <= 15.2\nsquared_error = 51.7\nsamples = 14\nvalue = 16.7"] ;
274 -> 278 ;
279 [label="precipitation_amt_mm <= 15.8\nsquared_error = 12.2\nsamples = 5\nvalue = 23.3"] ;
278 -> 279 ;
280 [label="ndvi_se <= 0.2\nsquared_error = 1.0\nsamples = 4\nvalue = 25.1"] ;
279 -> 280 ;
281 [label="squared_error = 0.0\nsamples = 2\nvalue = 24.0"] ;
280 -> 281 ;
282 [label="squared_error = 0.0\nsamples = 2\nvalue = 26.0"] ;
280 -> 282 ;
283 [label="squared_error = 0.0\nsamples = 1\nvalue = 17.0"] ;
279 -> 283 ;
284 [label="ndvi_se <= 0.2\nsquared_error = 28.0\nsamples = 9\nvalue = 12.2"] ;
278 -> 284 ;
285 [label="reanalysis_relative_humidity_percent <= 81.4\nsquared_error = 7.2\nsamples = 4\nvalue = 7.3"] ;
284 -> 285 ;
286 [label="precipitation_amt_mm <= 12.6\nsquared_error = 0.8\nsamples = 3\nvalue = 5.5"] ;
285 -> 286 ;
287 [label="squared_error = 0.0\nsamples = 1\nvalue = 4.0"] ;
286 -> 287 ;
288 [label="squared_error = 0.0\nsamples = 2\nvalue = 6.0"] ;
286 -> 288 ;
289 [label="squared_error = 0.0\nsamples = 1\nvalue = 11.0"] ;
285 -> 289 ;
290 [label="station_diur_temp_rng_c <= 6.2\nsquared_error = 8.8\nsamples = 5\nvalue = 16.3"] ;
284 -> 290 ;
291 [label="reanalysis_dew_point_temp_k <= 294.1\nsquared_error = 1.0\nsamples = 2\nvalue = 12.0"] ;
290 -> 291 ;
292 [label="squared_error = 0.0\nsamples = 1\nvalue = 13.0"] ;
291 -> 292 ;
293 [label="squared_error = 0.0\nsamples = 1\nvalue = 11.0"] ;
291 -> 293 ;
294 [label="reanalysis_sat_precip_amt_mm <= 14.9\nsquared_error = 1.6\nsamples = 3\nvalue = 18.0"] ;
290 -> 294 ;
295 [label="squared_error = 0.0\nsamples = 1\nvalue = 19.0"] ;
294 -> 295 ;
296 [label="station_avg_temp_c <= 25.3\nsquared_error = 0.2\nsamples = 2\nvalue = 16.5"] ;
294 -> 296 ;
297 [label="squared_error = 0.0\nsamples = 1\nvalue = 17.0"] ;
296 -> 297 ;
298 [label="squared_error = 0.0\nsamples = 1\nvalue = 16.0"] ;
296 -> 298 ;
299 [label="precipitation_amt_mm <= 98.1\nsquared_error = 50.8\nsamples = 11\nvalue = 7.3"] ;
181 -> 299 ;
300 [label="reanalysis_relative_humidity_percent <= 79.7\nsquared_error = 8.6\nsamples = 10\nvalue = 5.4"] ;
299 -> 300 ;
301 [label="station_avg_temp_c <= 26.7\nsquared_error = 2.2\nsamples = 5\nvalue = 3.7"] ;
300 -> 301 ;
302 [label="precipitation_amt_mm <= 44.1\nsquared_error = 0.2\nsamples = 3\nvalue = 2.5"] ;
301 -> 302 ;
303 [label="squared_error = 0.0\nsamples = 2\nvalue = 2.0"] ;
302 -> 303 ;
304 [label="squared_error = 0.0\nsamples = 1\nvalue = 3.0"] ;
302 -> 304 ;
305 [label="reanalysis_avg_temp_k <= 298.2\nsquared_error = 0.2\nsamples = 2\nvalue = 5.3"] ;
301 -> 305 ;
306 [label="squared_error = 0.0\nsamples = 1\nvalue = 6.0"] ;
305 -> 306 ;
307 [label="squared_error = 0.0\nsamples = 1\nvalue = 5.0"] ;
305 -> 307 ;
308 [label="reanalysis_specific_humidity_g_per_kg <= 16.5\nsquared_error = 7.8\nsamples = 5\nvalue = 7.8"] ;
300 -> 308 ;
309 [label="ndvi_sw <= 0.1\nsquared_error = 2.5\nsamples = 4\nvalue = 9.0"] ;
308 -> 309 ;
310 [label="station_avg_temp_c <= 27.0\nsquared_error = 0.2\nsamples = 2\nvalue = 7.5"] ;
309 -> 310 ;
311 [label="squared_error = 0.0\nsamples = 1\nvalue = 8.0"] ;
310 -> 311 ;
312 [label="squared_error = 0.0\nsamples = 1\nvalue = 7.0"] ;
310 -> 312 ;
313 [label="ndvi_nw <= 0.1\nsquared_error = 0.2\nsamples = 2\nvalue = 10.5"] ;
309 -> 313 ;
314 [label="squared_error = 0.0\nsamples = 1\nvalue = 10.0"] ;
313 -> 314 ;
315 [label="squared_error = 0.0\nsamples = 1\nvalue = 11.0"] ;
313 -> 315 ;
316 [label="squared_error = 0.0\nsamples = 1\nvalue = 3.0"] ;
308 -> 316 ;
317 [label="squared_error = 0.0\nsamples = 1\nvalue = 30.0"] ;
299 -> 317 ;
318 [label="reanalysis_air_temp_k <= 297.0\nsquared_error = 1332.2\nsamples = 2\nvalue = 54.5"] ;
176 -> 318 ;
319 [label="squared_error = 0.0\nsamples = 1\nvalue = 18.0"] ;
318 -> 319 ;
320 [label="squared_error = 0.0\nsamples = 1\nvalue = 91.0"] ;
318 -> 320 ;
321 [label="station_avg_temp_c <= 26.8\nsquared_error = 791.8\nsamples = 131\nvalue = 31.9"] ;
175 -> 321 ;
322 [label="reanalysis_min_air_temp_k <= 297.0\nsquared_error = 1405.1\nsamples = 20\nvalue = 56.9"] ;
321 -> 322 ;
323 [label="reanalysis_air_temp_k <= 298.6\nsquared_error = 126.4\nsamples = 8\nvalue = 28.3"] ;
322 -> 323 ;
324 [label="reanalysis_dew_point_temp_k <= 294.0\nsquared_error = 0.6\nsamples = 4\nvalue = 37.7"] ;
323 -> 324 ;
325 [label="squared_error = 0.0\nsamples = 1\nvalue = 36.0"] ;
324 -> 325 ;
326 [label="squared_error = 0.0\nsamples = 3\nvalue = 38.0"] ;
324 -> 326 ;
327 [label="reanalysis_relative_humidity_percent <= 77.6\nsquared_error = 78.0\nsamples = 4\nvalue = 19.0"] ;
323 -> 327 ;
328 [label="reanalysis_air_temp_k <= 298.8\nsquared_error = 9.0\nsamples = 2\nvalue = 25.0"] ;
327 -> 328 ;
329 [label="squared_error = 0.0\nsamples = 1\nvalue = 22.0"] ;
328 -> 329 ;
330 [label="squared_error = 0.0\nsamples = 1\nvalue = 28.0"] ;
328 -> 330 ;
331 [label="squared_error = 0.0\nsamples = 2\nvalue = 7.0"] ;
327 -> 331 ;
332 [label="station_precip_mm <= 40.7\nsquared_error = 1401.0\nsamples = 12\nvalue = 73.3"] ;
322 -> 332 ;
333 [label="ndvi_nw <= 0.1\nsquared_error = 989.9\nsamples = 11\nvalue = 80.6"] ;
332 -> 333 ;
334 [label="reanalysis_air_temp_k <= 298.5\nsquared_error = 250.5\nsamples = 7\nvalue = 64.0"] ;
333 -> 334 ;
335 [label="squared_error = 0.0\nsamples = 1\nvalue = 17.0"] ;
334 -> 335 ;
336 [label="station_min_temp_c <= 21.1\nsquared_error = 32.6\nsamples = 6\nvalue = 68.7"] ;
334 -> 336 ;
337 [label="reanalysis_tdtr_k <= 2.6\nsquared_error = 0.9\nsamples = 2\nvalue = 75.7"] ;
336 -> 337 ;
338 [label="squared_error = 0.0\nsamples = 1\nvalue = 77.0"] ;
337 -> 338 ;
339 [label="squared_error = 0.0\nsamples = 1\nvalue = 75.0"] ;
337 -> 339 ;
340 [label="station_precip_mm <= 23.0\nsquared_error = 16.5\nsamples = 4\nvalue = 65.7"] ;
336 -> 340 ;
341 [label="squared_error = 0.0\nsamples = 1\nvalue = 56.0"] ;
340 -> 341 ;
342 [label="reanalysis_avg_temp_k <= 299.5\nsquared_error = 0.9\nsamples = 3\nvalue = 67.3"] ;
340 -> 342 ;
343 [label="squared_error = 0.0\nsamples = 2\nvalue = 68.0"] ;
342 -> 343 ;
344 [label="squared_error = 0.0\nsamples = 1\nvalue = 66.0"] ;
342 -> 344 ;
345 [label="reanalysis_avg_temp_k <= 299.3\nsquared_error = 1109.0\nsamples = 4\nvalue = 103.4"] ;
333 -> 345 ;
346 [label="station_precip_mm <= 26.9\nsquared_error = 249.2\nsamples = 3\nvalue = 134.8"] ;
345 -> 346 ;
347 [label="station_avg_temp_c <= 26.7\nsquared_error = 14.2\nsamples = 2\nvalue = 143.7"] ;
346 -> 347 ;
348 [label="squared_error = 0.0\nsamples = 1\nvalue = 149.0"] ;
347 -> 348 ;
349 [label="squared_error = 0.0\nsamples = 1\nvalue = 141.0"] ;
347 -> 349 ;
350 [label="squared_error = 0.0\nsamples = 1\nvalue = 108.0"] ;
346 -> 350 ;
351 [label="squared_error = 0.0\nsamples = 1\nvalue = 72.0"] ;
345 -> 351 ;
352 [label="squared_error = 0.0\nsamples = 1\nvalue = 4.0"] ;
332 -> 352 ;
353 [label="reanalysis_tdtr_k <= 2.7\nsquared_error = 540.3\nsamples = 111\nvalue = 27.3"] ;
321 -> 353 ;
354 [label="ndvi_se <= 0.2\nsquared_error = 285.4\nsamples = 78\nvalue = 23.2"] ;
353 -> 354 ;
355 [label="reanalysis_max_air_temp_k <= 302.9\nsquared_error = 278.5\nsamples = 61\nvalue = 26.4"] ;
354 -> 355 ;
356 [label="station_diur_temp_rng_c <= 6.8\nsquared_error = 237.5\nsamples = 59\nvalue = 25.0"] ;
355 -> 356 ;
357 [label="station_avg_temp_c <= 27.2\nsquared_error = 105.6\nsamples = 28\nvalue = 19.3"] ;
356 -> 357 ;
358 [label="reanalysis_avg_temp_k <= 298.9\nsquared_error = 8.8\nsamples = 5\nvalue = 32.5"] ;
357 -> 358 ;
359 [label="squared_error = 0.0\nsamples = 1\nvalue = 26.0"] ;
358 -> 359 ;
360 [label="ndvi_ne <= 0.1\nsquared_error = 3.1\nsamples = 4\nvalue = 33.4"] ;
358 -> 360 ;
361 [label="precipitation_amt_mm <= 30.7\nsquared_error = 0.2\nsamples = 2\nvalue = 32.4"] ;
360 -> 361 ;
362 [label="squared_error = 0.0\nsamples = 1\nvalue = 33.0"] ;
361 -> 362 ;
363 [label="squared_error = 0.0\nsamples = 1\nvalue = 32.0"] ;
361 -> 363 ;
364 [label="reanalysis_specific_humidity_g_per_kg <= 16.8\nsquared_error = 1.0\nsamples = 2\nvalue = 36.0"] ;
360 -> 364 ;
365 [label="squared_error = 0.0\nsamples = 1\nvalue = 35.0"] ;
364 -> 365 ;
366 [label="squared_error = 0.0\nsamples = 1\nvalue = 37.0"] ;
364 -> 366 ;
367 [label="ndvi_ne <= -0.0\nsquared_error = 84.4\nsamples = 23\nvalue = 16.8"] ;
357 -> 367 ;
368 [label="reanalysis_relative_humidity_percent <= 79.2\nsquared_error = 16.7\nsamples = 3\nvalue = 26.4"] ;
367 -> 368 ;
369 [label="squared_error = 0.0\nsamples = 1\nvalue = 38.0"] ;
368 -> 369 ;
370 [label="squared_error = 0.0\nsamples = 2\nvalue = 25.0"] ;
368 -> 370 ;
371 [label="reanalysis_sat_precip_amt_mm <= 52.8\nsquared_error = 70.3\nsamples = 20\nvalue = 14.1"] ;
367 -> 371 ;
372 [label="station_precip_mm <= 18.9\nsquared_error = 49.0\nsamples = 16\nvalue = 12.4"] ;
371 -> 372 ;
373 [label="precipitation_amt_mm <= 12.9\nsquared_error = 22.7\nsamples = 7\nvalue = 18.1"] ;
372 -> 373 ;
374 [label="reanalysis_avg_temp_k <= 299.9\nsquared_error = 7.0\nsamples = 3\nvalue = 23.2"] ;
373 -> 374 ;
375 [label="ndvi_se <= 0.2\nsquared_error = 0.2\nsamples = 2\nvalue = 25.3"] ;
374 -> 375 ;
376 [label="squared_error = 0.0\nsamples = 1\nvalue = 26.0"] ;
375 -> 376 ;
377 [label="squared_error = 0.0\nsamples = 1\nvalue = 25.0"] ;
375 -> 377 ;
378 [label="squared_error = 0.0\nsamples = 1\nvalue = 20.0"] ;
374 -> 378 ;
379 [label="station_max_temp_c <= 31.4\nsquared_error = 2.0\nsamples = 4\nvalue = 14.4"] ;
373 -> 379 ;
380 [label="squared_error = 0.0\nsamples = 1\nvalue = 16.0"] ;
379 -> 380 ;
381 [label="station_diur_temp_rng_c <= 6.7\nsquared_error = 0.2\nsamples = 3\nvalue = 13.2"] ;
379 -> 381 ;
382 [label="squared_error = 0.0\nsamples = 2\nvalue = 13.0"] ;
381 -> 382 ;
383 [label="squared_error = 0.0\nsamples = 1\nvalue = 14.0"] ;
381 -> 383 ;
384 [label="reanalysis_precip_amt_kg_per_m2 <= 53.7\nsquared_error = 29.3\nsamples = 9\nvalue = 8.5"] ;
372 -> 384 ;
385 [label="reanalysis_precip_amt_kg_per_m2 <= 45.8\nsquared_error = 5.6\nsamples = 8\nvalue = 6.7"] ;
384 -> 385 ;
386 [label="ndvi_ne <= 0.0\nsquared_error = 2.9\nsamples = 7\nvalue = 6.2"] ;
385 -> 386 ;
387 [label="squared_error = 0.0\nsamples = 1\nvalue = 10.0"] ;
386 -> 387 ;
388 [label="station_avg_temp_c <= 27.6\nsquared_error = 0.6\nsamples = 6\nvalue = 5.6"] ;
386 -> 388 ;
389 [label="squared_error = 0.0\nsamples = 1\nvalue = 4.0"] ;
388 -> 389 ;
390 [label="ndvi_nw <= 0.1\nsquared_error = 0.1\nsamples = 5\nvalue = 5.9"] ;
388 -> 390 ;
391 [label="squared_error = 0.0\nsamples = 4\nvalue = 6.0"] ;
390 -> 391 ;
392 [label="squared_error = 0.0\nsamples = 1\nvalue = 5.0"] ;
390 -> 392 ;
393 [label="squared_error = 0.0\nsamples = 1\nvalue = 13.0"] ;
385 -> 393 ;
394 [label="squared_error = 0.0\nsamples = 1\nvalue = 22.0"] ;
384 -> 394 ;
395 [label="reanalysis_max_air_temp_k <= 301.4\nsquared_error = 57.2\nsamples = 4\nvalue = 26.2"] ;
371 -> 395 ;
396 [label="squared_error = 0.0\nsamples = 1\nvalue = 14.0"] ;
395 -> 396 ;
397 [label="station_min_temp_c <= 23.0\nsquared_error = 9.6\nsamples = 3\nvalue = 30.3"] ;
395 -> 397 ;
398 [label="squared_error = 0.0\nsamples = 1\nvalue = 26.0"] ;
397 -> 398 ;
399 [label="reanalysis_tdtr_k <= 2.5\nsquared_error = 0.2\nsamples = 2\nvalue = 32.5"] ;
397 -> 399 ;
400 [label="squared_error = 0.0\nsamples = 1\nvalue = 33.0"] ;
399 -> 400 ;
401 [label="squared_error = 0.0\nsamples = 1\nvalue = 32.0"] ;
399 -> 401 ;
402 [label="station_avg_temp_c <= 27.9\nsquared_error = 309.4\nsamples = 31\nvalue = 32.0"] ;
356 -> 402 ;
403 [label="ndvi_nw <= 0.1\nsquared_error = 164.0\nsamples = 15\nvalue = 22.8"] ;
402 -> 403 ;
404 [label="reanalysis_precip_amt_kg_per_m2 <= 29.1\nsquared_error = 43.1\nsamples = 6\nvalue = 33.9"] ;
403 -> 404 ;
405 [label="reanalysis_sat_precip_amt_mm <= 3.0\nsquared_error = 16.8\nsamples = 3\nvalue = 39.5"] ;
404 -> 405 ;
406 [label="squared_error = 0.0\nsamples = 1\nvalue = 46.0"] ;
405 -> 406 ;
407 [label="station_avg_temp_c <= 26.8\nsquared_error = 3.6\nsamples = 2\nvalue = 37.3"] ;
405 -> 407 ;
408 [label="squared_error = 0.0\nsamples = 1\nvalue = 40.0"] ;
407 -> 408 ;
409 [label="squared_error = 0.0\nsamples = 1\nvalue = 36.0"] ;
407 -> 409 ;
410 [label="station_precip_mm <= 47.3\nsquared_error = 6.2\nsamples = 3\nvalue = 28.2"] ;
404 -> 410 ;
411 [label="squared_error = 0.0\nsamples = 1\nvalue = 32.0"] ;
410 -> 411 ;
412 [label="ndvi_ne <= 0.0\nsquared_error = 2.0\nsamples = 2\nvalue = 27.0"] ;
410 -> 412 ;
413 [label="squared_error = 0.0\nsamples = 1\nvalue = 25.0"] ;
412 -> 413 ;
414 [label="squared_error = 0.0\nsamples = 1\nvalue = 28.0"] ;
412 -> 414 ;
415 [label="ndvi_se <= 0.1\nsquared_error = 108.2\nsamples = 9\nvalue = 15.4"] ;
403 -> 415 ;
416 [label="ndvi_nw <= 0.1\nsquared_error = 1.0\nsamples = 2\nvalue = 35.0"] ;
415 -> 416 ;
417 [label="squared_error = 0.0\nsamples = 1\nvalue = 36.0"] ;
416 -> 417 ;
418 [label="squared_error = 0.0\nsamples = 1\nvalue = 34.0"] ;
416 -> 418 ;
419 [label="station_max_temp_c <= 33.0\nsquared_error = 37.7\nsamples = 7\nvalue = 11.5"] ;
415 -> 419 ;
420 [label="reanalysis_sat_precip_amt_mm <= 13.0\nsquared_error = 12.6\nsamples = 6\nvalue = 8.9"] ;
419 -> 420 ;
421 [label="squared_error = 0.0\nsamples = 1\nvalue = 1.0"] ;
420 -> 421 ;
422 [label="ndvi_se <= 0.2\nsquared_error = 4.3\nsamples = 5\nvalue = 10.0"] ;
420 -> 422 ;
423 [label="station_diur_temp_rng_c <= 6.9\nsquared_error = 0.2\nsamples = 3\nvalue = 11.8"] ;
422 -> 423 ;
424 [label="squared_error = 0.0\nsamples = 1\nvalue = 11.0"] ;
423 -> 424 ;
425 [label="squared_error = 0.0\nsamples = 2\nvalue = 12.0"] ;
423 -> 425 ;
426 [label="precipitation_amt_mm <= 21.2\nsquared_error = 0.2\nsamples = 2\nvalue = 7.7"] ;
422 -> 426 ;
427 [label="squared_error = 0.0\nsamples = 1\nvalue = 7.0"] ;
426 -> 427 ;
428 [label="squared_error = 0.0\nsamples = 1\nvalue = 8.0"] ;
426 -> 428 ;
429 [label="squared_error = 0.0\nsamples = 1\nvalue = 22.0"] ;
419 -> 429 ;
430 [label="ndvi_ne <= 0.1\nsquared_error = 290.6\nsamples = 16\nvalue = 40.8"] ;
402 -> 430 ;
431 [label="station_precip_mm <= 19.3\nsquared_error = 28.2\nsamples = 3\nvalue = 67.7"] ;
430 -> 431 ;
432 [label="squared_error = 0.0\nsamples = 1\nvalue = 61.0"] ;
431 -> 432 ;
433 [label="ndvi_ne <= 0.0\nsquared_error = 9.0\nsamples = 2\nvalue = 71.0"] ;
431 -> 433 ;
434 [label="squared_error = 0.0\nsamples = 1\nvalue = 68.0"] ;
433 -> 434 ;
435 [label="squared_error = 0.0\nsamples = 1\nvalue = 74.0"] ;
433 -> 435 ;
436 [label="reanalysis_dew_point_temp_k <= 296.3\nsquared_error = 193.5\nsamples = 13\nvalue = 36.3"] ;
430 -> 436 ;
437 [label="station_diur_temp_rng_c <= 7.2\nsquared_error = 93.9\nsamples = 8\nvalue = 42.9"] ;
436 -> 437 ;
438 [label="reanalysis_air_temp_k <= 299.4\nsquared_error = 72.7\nsamples = 3\nvalue = 54.0"] ;
437 -> 438 ;
439 [label="squared_error = 0.0\nsamples = 1\nvalue = 42.0"] ;
438 -> 439 ;
440 [label="station_precip_mm <= 12.9\nsquared_error = 1.0\nsamples = 2\nvalue = 60.0"] ;
438 -> 440 ;
441 [label="squared_error = 0.0\nsamples = 1\nvalue = 59.0"] ;
440 -> 441 ;
442 [label="squared_error = 0.0\nsamples = 1\nvalue = 61.0"] ;
440 -> 442 ;
443 [label="reanalysis_min_air_temp_k <= 298.4\nsquared_error = 38.4\nsamples = 5\nvalue = 38.8"] ;
437 -> 443 ;
444 [label="reanalysis_tdtr_k <= 2.3\nsquared_error = 6.0\nsamples = 3\nvalue = 31.0"] ;
443 -> 444 ;
445 [label="squared_error = 0.0\nsamples = 1\nvalue = 28.0"] ;
444 -> 445 ;
446 [label="reanalysis_max_air_temp_k <= 301.5\nsquared_error = 2.2\nsamples = 2\nvalue = 32.5"] ;
444 -> 446 ;
447 [label="squared_error = 0.0\nsamples = 1\nvalue = 31.0"] ;
446 -> 447 ;
448 [label="squared_error = 0.0\nsamples = 1\nvalue = 34.0"] ;
446 -> 448 ;
449 [label="reanalysis_dew_point_temp_k <= 296.1\nsquared_error = 0.2\nsamples = 2\nvalue = 43.4"] ;
443 -> 449 ;
450 [label="squared_error = 0.0\nsamples = 1\nvalue = 43.0"] ;
449 -> 450 ;
451 [label="squared_error = 0.0\nsamples = 1\nvalue = 44.0"] ;
449 -> 451 ;
452 [label="station_diur_temp_rng_c <= 7.0\nsquared_error = 172.4\nsamples = 5\nvalue = 25.9"] ;
436 -> 452 ;
453 [label="squared_error = 0.0\nsamples = 1\nvalue = 55.0"] ;
452 -> 453 ;
454 [label="station_max_temp_c <= 33.6\nsquared_error = 36.0\nsamples = 4\nvalue = 21.0"] ;
452 -> 454 ;
455 [label="reanalysis_tdtr_k <= 2.0\nsquared_error = 8.6\nsamples = 3\nvalue = 23.4"] ;
454 -> 455 ;
456 [label="squared_error = 0.0\nsamples = 1\nvalue = 27.0"] ;
455 -> 456 ;
457 [label="squared_error = 0.0\nsamples = 2\nvalue = 21.0"] ;
455 -> 457 ;
458 [label="squared_error = 0.0\nsamples = 1\nvalue = 9.0"] ;
454 -> 458 ;
459 [label="reanalysis_specific_humidity_g_per_kg <= 18.1\nsquared_error = 169.0\nsamples = 2\nvalue = 58.0"] ;
355 -> 459 ;
460 [label="squared_error = 0.0\nsamples = 1\nvalue = 71.0"] ;
459 -> 460 ;
461 [label="squared_error = 0.0\nsamples = 1\nvalue = 45.0"] ;
459 -> 461 ;
462 [label="reanalysis_tdtr_k <= 2.1\nsquared_error = 141.7\nsamples = 17\nvalue = 11.7"] ;
354 -> 462 ;
463 [label="station_diur_temp_rng_c <= 7.8\nsquared_error = 8.0\nsamples = 2\nvalue = 38.0"] ;
462 -> 463 ;
464 [label="squared_error = 0.0\nsamples = 1\nvalue = 34.0"] ;
463 -> 464 ;
465 [label="squared_error = 0.0\nsamples = 1\nvalue = 40.0"] ;
463 -> 465 ;
466 [label="station_diur_temp_rng_c <= 7.5\nsquared_error = 57.4\nsamples = 15\nvalue = 8.3"] ;
462 -> 466 ;
467 [label="station_diur_temp_rng_c <= 6.7\nsquared_error = 45.1\nsamples = 13\nvalue = 6.7"] ;
466 -> 467 ;
468 [label="reanalysis_precip_amt_kg_per_m2 <= 31.5\nsquared_error = 94.2\nsamples = 5\nvalue = 12.7"] ;
467 -> 468 ;
469 [label="station_avg_temp_c <= 28.5\nsquared_error = 7.7\nsamples = 3\nvalue = 6.2"] ;
468 -> 469 ;
470 [label="reanalysis_precip_amt_kg_per_m2 <= 25.2\nsquared_error = 0.2\nsamples = 2\nvalue = 3.5"] ;
469 -> 470 ;
471 [label="squared_error = 0.0\nsamples = 1\nvalue = 4.0"] ;
470 -> 471 ;
472 [label="squared_error = 0.0\nsamples = 1\nvalue = 3.0"] ;
470 -> 472 ;
473 [label="squared_error = 0.0\nsamples = 1\nvalue = 9.0"] ;
469 -> 473 ;
474 [label="station_diur_temp_rng_c <= 6.4\nsquared_error = 20.2\nsamples = 2\nvalue = 25.5"] ;
468 -> 474 ;
475 [label="squared_error = 0.0\nsamples = 1\nvalue = 21.0"] ;
474 -> 475 ;
476 [label="squared_error = 0.0\nsamples = 1\nvalue = 30.0"] ;
474 -> 476 ;
477 [label="reanalysis_avg_temp_k <= 300.1\nsquared_error = 2.3\nsamples = 8\nvalue = 4.1"] ;
467 -> 477 ;
478 [label="ndvi_se <= 0.2\nsquared_error = 0.8\nsamples = 5\nvalue = 3.0"] ;
477 -> 478 ;
479 [label="reanalysis_tdtr_k <= 2.4\nsquared_error = 0.2\nsamples = 2\nvalue = 3.6"] ;
478 -> 479 ;
480 [label="squared_error = 0.0\nsamples = 1\nvalue = 4.0"] ;
479 -> 480 ;
481 [label="squared_error = 0.0\nsamples = 1\nvalue = 3.0"] ;
479 -> 481 ;
482 [label="squared_error = 0.0\nsamples = 3\nvalue = 2.0"] ;
478 -> 482 ;
483 [label="reanalysis_relative_humidity_percent <= 79.0\nsquared_error = 0.2\nsamples = 3\nvalue = 5.7"] ;
477 -> 483 ;
484 [label="squared_error = 0.0\nsamples = 2\nvalue = 6.0"] ;
483 -> 484 ;
485 [label="squared_error = 0.0\nsamples = 1\nvalue = 5.0"] ;
483 -> 485 ;
486 [label="station_min_temp_c <= 22.5\nsquared_error = 8.0\nsamples = 2\nvalue = 19.0"] ;
466 -> 486 ;
487 [label="squared_error = 0.0\nsamples = 1\nvalue = 23.0"] ;
486 -> 487 ;
488 [label="squared_error = 0.0\nsamples = 1\nvalue = 17.0"] ;
486 -> 488 ;
489 [label="ndvi_nw <= 0.0\nsquared_error = 974.8\nsamples = 33\nvalue = 35.8"] ;
353 -> 489 ;
490 [label="station_diur_temp_rng_c <= 6.6\nsquared_error = 39.6\nsamples = 6\nvalue = 10.1"] ;
489 -> 490 ;
491 [label="station_precip_mm <= 27.5\nsquared_error = 2.0\nsamples = 2\nvalue = 21.0"] ;
490 -> 491 ;
492 [label="squared_error = 0.0\nsamples = 1\nvalue = 22.0"] ;
491 -> 492 ;
493 [label="squared_error = 0.0\nsamples = 1\nvalue = 19.0"] ;
491 -> 493 ;
494 [label="station_precip_mm <= 28.4\nsquared_error = 4.4\nsamples = 4\nvalue = 6.8"] ;
490 -> 494 ;
495 [label="station_diur_temp_rng_c <= 7.2\nsquared_error = 0.9\nsamples = 2\nvalue = 8.3"] ;
494 -> 495 ;
496 [label="squared_error = 0.0\nsamples = 1\nvalue = 9.0"] ;
495 -> 496 ;
497 [label="squared_error = 0.0\nsamples = 1\nvalue = 7.0"] ;
495 -> 497 ;
498 [label="ndvi_nw <= -0.0\nsquared_error = 0.8\nsamples = 2\nvalue = 4.5"] ;
494 -> 498 ;
499 [label="squared_error = 0.0\nsamples = 1\nvalue = 6.0"] ;
498 -> 499 ;
500 [label="squared_error = 0.0\nsamples = 1\nvalue = 4.0"] ;
498 -> 500 ;
501 [label="reanalysis_precip_amt_kg_per_m2 <= 12.8\nsquared_error = 998.4\nsamples = 27\nvalue = 43.4"] ;
489 -> 501 ;
502 [label="reanalysis_precip_amt_kg_per_m2 <= 12.0\nsquared_error = 930.2\nsamples = 2\nvalue = 98.5"] ;
501 -> 502 ;
503 [label="squared_error = 0.0\nsamples = 1\nvalue = 68.0"] ;
502 -> 503 ;
504 [label="squared_error = 0.0\nsamples = 1\nvalue = 129.0"] ;
502 -> 504 ;
505 [label="reanalysis_specific_humidity_g_per_kg <= 17.7\nsquared_error = 850.0\nsamples = 25\nvalue = 40.7"] ;
501 -> 505 ;
506 [label="reanalysis_sat_precip_amt_mm <= 73.2\nsquared_error = 551.3\nsamples = 11\nvalue = 24.0"] ;
505 -> 506 ;
507 [label="reanalysis_relative_humidity_percent <= 78.6\nsquared_error = 52.0\nsamples = 9\nvalue = 10.4"] ;
506 -> 507 ;
508 [label="reanalysis_precip_amt_kg_per_m2 <= 20.2\nsquared_error = 26.1\nsamples = 6\nvalue = 14.9"] ;
507 -> 508 ;
509 [label="precipitation_amt_mm <= 61.2\nsquared_error = 6.4\nsamples = 4\nvalue = 12.0"] ;
508 -> 509 ;
510 [label="reanalysis_tdtr_k <= 3.3\nsquared_error = 0.7\nsamples = 3\nvalue = 14.0"] ;
509 -> 510 ;
511 [label="station_diur_temp_rng_c <= 7.3\nsquared_error = 0.2\nsamples = 2\nvalue = 13.5"] ;
510 -> 511 ;
512 [label="squared_error = 0.0\nsamples = 1\nvalue = 13.0"] ;
511 -> 512 ;
513 [label="squared_error = 0.0\nsamples = 1\nvalue = 14.0"] ;
511 -> 513 ;
514 [label="squared_error = 0.0\nsamples = 1\nvalue = 15.0"] ;
510 -> 514 ;
515 [label="squared_error = 0.0\nsamples = 1\nvalue = 9.0"] ;
509 -> 515 ;
516 [label="reanalysis_relative_humidity_percent <= 76.9\nsquared_error = 4.0\nsamples = 2\nvalue = 22.0"] ;
508 -> 516 ;
517 [label="squared_error = 0.0\nsamples = 1\nvalue = 20.0"] ;
516 -> 517 ;
518 [label="squared_error = 0.0\nsamples = 1\nvalue = 24.0"] ;
516 -> 518 ;
519 [label="reanalysis_tdtr_k <= 2.9\nsquared_error = 0.2\nsamples = 3\nvalue = 2.5"] ;
507 -> 519 ;
520 [label="squared_error = 0.0\nsamples = 1\nvalue = 3.0"] ;
519 -> 520 ;
521 [label="squared_error = 0.0\nsamples = 2\nvalue = 2.0"] ;
519 -> 521 ;
522 [label="ndvi_sw <= 0.1\nsquared_error = 6.8\nsamples = 2\nvalue = 61.5"] ;
506 -> 522 ;
523 [label="squared_error = 0.0\nsamples = 1\nvalue = 57.0"] ;
522 -> 523 ;
524 [label="squared_error = 0.0\nsamples = 1\nvalue = 63.0"] ;
522 -> 524 ;
525 [label="ndvi_sw <= 0.1\nsquared_error = 773.8\nsamples = 14\nvalue = 50.0"] ;
505 -> 525 ;
526 [label="squared_error = 0.0\nsamples = 1\nvalue = 150.0"] ;
525 -> 526 ;
527 [label="reanalysis_precip_amt_kg_per_m2 <= 20.8\nsquared_error = 404.5\nsamples = 13\nvalue = 46.2"] ;
525 -> 527 ;
528 [label="station_diur_temp_rng_c <= 6.8\nsquared_error = 49.1\nsamples = 4\nvalue = 63.2"] ;
527 -> 528 ;
529 [label="reanalysis_sat_precip_amt_mm <= 17.8\nsquared_error = 14.2\nsamples = 2\nvalue = 67.7"] ;
528 -> 529 ;
530 [label="squared_error = 0.0\nsamples = 1\nvalue = 65.0"] ;
529 -> 530 ;
531 [label="squared_error = 0.0\nsamples = 1\nvalue = 73.0"] ;
529 -> 531 ;
532 [label="station_max_temp_c <= 33.0\nsquared_error = 0.2\nsamples = 2\nvalue = 54.3"] ;
528 -> 532 ;
533 [label="squared_error = 0.0\nsamples = 1\nvalue = 54.0"] ;
532 -> 533 ;
534 [label="squared_error = 0.0\nsamples = 1\nvalue = 55.0"] ;
532 -> 534 ;
535 [label="reanalysis_sat_precip_amt_mm <= 28.8\nsquared_error = 357.8\nsamples = 9\nvalue = 37.2"] ;
527 -> 535 ;
536 [label="reanalysis_min_air_temp_k <= 298.2\nsquared_error = 8.0\nsamples = 2\nvalue = 6.0"] ;
535 -> 536 ;
537 [label="squared_error = 0.0\nsamples = 1\nvalue = 8.0"] ;
536 -> 537 ;
538 [label="squared_error = 0.0\nsamples = 1\nvalue = 2.0"] ;
536 -> 538 ;
539 [label="station_diur_temp_rng_c <= 6.8\nsquared_error = 179.8\nsamples = 7\nvalue = 43.9"] ;
535 -> 539 ;
540 [label="station_avg_temp_c <= 27.4\nsquared_error = 15.2\nsamples = 2\nvalue = 62.8"] ;
539 -> 540 ;
541 [label="squared_error = 0.0\nsamples = 1\nvalue = 56.0"] ;
540 -> 541 ;
542 [label="squared_error = 0.0\nsamples = 1\nvalue = 65.0"] ;
540 -> 542 ;
543 [label="ndvi_se <= 0.1\nsquared_error = 45.8\nsamples = 5\nvalue = 36.3"] ;
539 -> 543 ;
544 [label="squared_error = 0.0\nsamples = 1\nvalue = 18.0"] ;
543 -> 544 ;
545 [label="ndvi_se <= 0.2\nsquared_error = 9.6\nsamples = 4\nvalue = 38.3"] ;
543 -> 545 ;
546 [label="squared_error = 0.0\nsamples = 1\nvalue = 31.0"] ;
545 -> 546 ;
547 [label="station_min_temp_c <= 22.8\nsquared_error = 3.2\nsamples = 3\nvalue = 39.2"] ;
545 -> 547 ;
548 [label="squared_error = 0.0\nsamples = 1\nvalue = 37.0"] ;
547 -> 548 ;
549 [label="reanalysis_avg_temp_k <= 300.3\nsquared_error = 0.2\nsamples = 2\nvalue = 40.6"] ;
547 -> 549 ;
550 [label="squared_error = 0.0\nsamples = 1\nvalue = 40.0"] ;
549 -> 550 ;
551 [label="squared_error = 0.0\nsamples = 1\nvalue = 41.0"] ;
549 -> 551 ;
552 [label="ndvi_se <= 0.1\nsquared_error = 6904.9\nsamples = 7\nvalue = 78.9"] ;
4 -> 552 ;
553 [label="reanalysis_max_air_temp_k <= 302.4\nsquared_error = 4356.0\nsamples = 2\nvalue = 206.0"] ;
552 -> 553 ;
554 [label="squared_error = 0.0\nsamples = 1\nvalue = 272.0"] ;
553 -> 554 ;
555 [label="squared_error = 0.0\nsamples = 1\nvalue = 140.0"] ;
553 -> 555 ;
556 [label="reanalysis_relative_humidity_percent <= 81.5\nsquared_error = 571.9\nsamples = 5\nvalue = 36.5"] ;
552 -> 556 ;
557 [label="ndvi_sw <= 0.2\nsquared_error = 326.9\nsamples = 3\nvalue = 55.3"] ;
556 -> 557 ;
558 [label="precipitation_amt_mm <= 154.4\nsquared_error = 9.0\nsamples = 2\nvalue = 68.0"] ;
557 -> 558 ;
559 [label="squared_error = 0.0\nsamples = 1\nvalue = 65.0"] ;
558 -> 559 ;
560 [label="squared_error = 0.0\nsamples = 1\nvalue = 71.0"] ;
558 -> 560 ;
561 [label="squared_error = 0.0\nsamples = 1\nvalue = 30.0"] ;
557 -> 561 ;
562 [label="precipitation_amt_mm <= 52.4\nsquared_error = 107.6\nsamples = 2\nvalue = 17.7"] ;
556 -> 562 ;
563 [label="squared_error = 0.0\nsamples = 1\nvalue = 3.0"] ;
562 -> 563 ;
564 [label="squared_error = 0.0\nsamples = 1\nvalue = 25.0"] ;
562 -> 564 ;
565 [label="reanalysis_specific_humidity_g_per_kg <= 16.8\nsquared_error = 6381.6\nsamples = 53\nvalue = 47.8"] ;
3 -> 565 ;
566 [label="squared_error = 0.0\nsamples = 1\nvalue = 426.0"] ;
565 -> 566 ;
567 [label="reanalysis_dew_point_temp_k <= 296.0\nsquared_error = 4810.2\nsamples = 52\nvalue = 43.5"] ;
565 -> 567 ;
568 [label="reanalysis_specific_humidity_g_per_kg <= 17.3\nsquared_error = 13993.1\nsamples = 8\nvalue = 97.6"] ;
567 -> 568 ;
569 [label="station_avg_temp_c <= 28.5\nsquared_error = 1511.6\nsamples = 5\nvalue = 35.1"] ;
568 -> 569 ;
570 [label="reanalysis_specific_humidity_g_per_kg <= 17.0\nsquared_error = 87.1\nsamples = 4\nvalue = 8.1"] ;
569 -> 570 ;
571 [label="squared_error = 0.0\nsamples = 1\nvalue = 31.0"] ;
570 -> 571 ;
572 [label="station_max_temp_c <= 32.5\nsquared_error = 14.1\nsamples = 3\nvalue = 4.9"] ;
570 -> 572 ;
573 [label="reanalysis_sat_precip_amt_mm <= 5.9\nsquared_error = 0.2\nsamples = 2\nvalue = 3.3"] ;
572 -> 573 ;
574 [label="squared_error = 0.0\nsamples = 1\nvalue = 3.0"] ;
573 -> 574 ;
575 [label="squared_error = 0.0\nsamples = 1\nvalue = 4.0"] ;
573 -> 575 ;
576 [label="squared_error = 0.0\nsamples = 1\nvalue = 14.0"] ;
572 -> 576 ;
577 [label="squared_error = 0.0\nsamples = 1\nvalue = 89.0"] ;
569 -> 577 ;
578 [label="ndvi_sw <= 0.2\nsquared_error = 12068.6\nsamples = 3\nvalue = 247.6"] ;
568 -> 578 ;
579 [label="squared_error = 0.0\nsamples = 1\nvalue = 115.0"] ;
578 -> 579 ;
580 [label="reanalysis_avg_temp_k <= 300.0\nsquared_error = 578.0\nsamples = 2\nvalue = 336.0"] ;
578 -> 580 ;
581 [label="squared_error = 0.0\nsamples = 1\nvalue = 302.0"] ;
580 -> 581 ;
582 [label="squared_error = 0.0\nsamples = 1\nvalue = 353.0"] ;
580 -> 582 ;
583 [label="reanalysis_dew_point_temp_k <= 296.9\nsquared_error = 1743.3\nsamples = 44\nvalue = 30.5"] ;
567 -> 583 ;
584 [label="reanalysis_sat_precip_amt_mm <= 1.2\nsquared_error = 303.0\nsamples = 33\nvalue = 23.4"] ;
583 -> 584 ;
585 [label="squared_error = 0.0\nsamples = 1\nvalue = 71.0"] ;
584 -> 585 ;
586 [label="reanalysis_sat_precip_amt_mm <= 51.6\nsquared_error = 229.9\nsamples = 32\nvalue = 21.7"] ;
584 -> 586 ;
587 [label="reanalysis_max_air_temp_k <= 301.8\nsquared_error = 136.3\nsamples = 28\nvalue = 18.5"] ;
586 -> 587 ;
588 [label="ndvi_ne <= 0.1\nsquared_error = 124.7\nsamples = 4\nvalue = 34.9"] ;
587 -> 588 ;
589 [label="squared_error = 0.0\nsamples = 1\nvalue = 62.0"] ;
588 -> 589 ;
590 [label="reanalysis_avg_temp_k <= 300.1\nsquared_error = 2.2\nsamples = 3\nvalue = 30.3"] ;
588 -> 590 ;
591 [label="squared_error = 0.0\nsamples = 1\nvalue = 29.0"] ;
590 -> 591 ;
592 [label="station_max_temp_c <= 33.9\nsquared_error = 0.9\nsamples = 2\nvalue = 31.7"] ;
590 -> 592 ;
593 [label="squared_error = 0.0\nsamples = 1\nvalue = 31.0"] ;
592 -> 593 ;
594 [label="squared_error = 0.0\nsamples = 1\nvalue = 33.0"] ;
592 -> 594 ;
595 [label="reanalysis_precip_amt_kg_per_m2 <= 8.6\nsquared_error = 85.1\nsamples = 24\nvalue = 15.8"] ;
587 -> 595 ;
596 [label="station_diur_temp_rng_c <= 7.2\nsquared_error = 8.2\nsamples = 3\nvalue = 30.5"] ;
595 -> 596 ;
597 [label="station_max_temp_c <= 33.4\nsquared_error = 2.0\nsamples = 2\nvalue = 29.0"] ;
596 -> 597 ;
598 [label="squared_error = 0.0\nsamples = 1\nvalue = 28.0"] ;
597 -> 598 ;
599 [label="squared_error = 0.0\nsamples = 1\nvalue = 31.0"] ;
597 -> 599 ;
600 [label="squared_error = 0.0\nsamples = 1\nvalue = 35.0"] ;
596 -> 600 ;
601 [label="ndvi_nw <= 0.0\nsquared_error = 67.3\nsamples = 21\nvalue = 14.2"] ;
595 -> 601 ;
602 [label="ndvi_se <= 0.1\nsquared_error = 15.9\nsamples = 4\nvalue = 4.7"] ;
601 -> 602 ;
603 [label="squared_error = 0.0\nsamples = 1\nvalue = 14.0"] ;
602 -> 603 ;
604 [label="reanalysis_air_temp_k <= 300.8\nsquared_error = 1.8\nsamples = 3\nvalue = 3.2"] ;
602 -> 604 ;
605 [label="station_min_temp_c <= 24.7\nsquared_error = 0.2\nsamples = 2\nvalue = 2.6"] ;
604 -> 605 ;
606 [label="squared_error = 0.0\nsamples = 1\nvalue = 3.0"] ;
605 -> 606 ;
607 [label="squared_error = 0.0\nsamples = 1\nvalue = 2.0"] ;
605 -> 607 ;
608 [label="squared_error = 0.0\nsamples = 1\nvalue = 6.0"] ;
604 -> 608 ;
609 [label="station_diur_temp_rng_c <= 6.5\nsquared_error = 53.6\nsamples = 17\nvalue = 16.4"] ;
601 -> 609 ;
610 [label="reanalysis_dew_point_temp_k <= 296.4\nsquared_error = 31.9\nsamples = 8\nvalue = 21.8"] ;
609 -> 610 ;
611 [label="squared_error = 0.0\nsamples = 1\nvalue = 7.0"] ;
610 -> 611 ;
612 [label="ndvi_nw <= 0.2\nsquared_error = 14.8\nsamples = 7\nvalue = 23.0"] ;
610 -> 612 ;
613 [label="ndvi_sw <= 0.1\nsquared_error = 8.1\nsamples = 6\nvalue = 23.8"] ;
612 -> 613 ;
614 [label="squared_error = 0.0\nsamples = 1\nvalue = 17.0"] ;
613 -> 614 ;
615 [label="ndvi_nw <= 0.0\nsquared_error = 3.9\nsamples = 5\nvalue = 24.5"] ;
613 -> 615 ;
616 [label="squared_error = 0.0\nsamples = 1\nvalue = 21.0"] ;
615 -> 616 ;
617 [label="station_max_temp_c <= 33.9\nsquared_error = 1.0\nsamples = 4\nvalue = 25.4"] ;
615 -> 617 ;
618 [label="squared_error = 0.0\nsamples = 3\nvalue = 25.0"] ;
617 -> 618 ;
619 [label="squared_error = 0.0\nsamples = 1\nvalue = 28.0"] ;
617 -> 619 ;
620 [label="squared_error = 0.0\nsamples = 1\nvalue = 14.0"] ;
612 -> 620 ;
621 [label="reanalysis_dew_point_temp_k <= 296.1\nsquared_error = 30.9\nsamples = 9\nvalue = 12.2"] ;
609 -> 621 ;
622 [label="precipitation_amt_mm <= 41.1\nsquared_error = 1.0\nsamples = 2\nvalue = 26.0"] ;
621 -> 622 ;
623 [label="squared_error = 0.0\nsamples = 1\nvalue = 25.0"] ;
622 -> 623 ;
624 [label="squared_error = 0.0\nsamples = 1\nvalue = 27.0"] ;
622 -> 624 ;
625 [label="ndvi_sw <= 0.2\nsquared_error = 6.2\nsamples = 7\nvalue = 10.4"] ;
621 -> 625 ;
626 [label="reanalysis_min_air_temp_k <= 298.8\nsquared_error = 1.0\nsamples = 3\nvalue = 13.0"] ;
625 -> 626 ;
627 [label="reanalysis_min_air_temp_k <= 298.5\nsquared_error = 0.2\nsamples = 2\nvalue = 13.4"] ;
626 -> 627 ;
628 [label="squared_error = 0.0\nsamples = 1\nvalue = 14.0"] ;
627 -> 628 ;
629 [label="squared_error = 0.0\nsamples = 1\nvalue = 13.0"] ;
627 -> 629 ;
630 [label="squared_error = 0.0\nsamples = 1\nvalue = 11.0"] ;
626 -> 630 ;
631 [label="reanalysis_tdtr_k <= 2.0\nsquared_error = 2.2\nsamples = 4\nvalue = 8.7"] ;
625 -> 631 ;
632 [label="ndvi_sw <= 0.2\nsquared_error = 0.2\nsamples = 2\nvalue = 9.7"] ;
631 -> 632 ;
633 [label="squared_error = 0.0\nsamples = 1\nvalue = 10.0"] ;
632 -> 633 ;
634 [label="squared_error = 0.0\nsamples = 1\nvalue = 9.0"] ;
632 -> 634 ;
635 [label="reanalysis_sat_precip_amt_mm <= 27.8\nsquared_error = 0.2\nsamples = 2\nvalue = 6.7"] ;
631 -> 635 ;
636 [label="squared_error = 0.0\nsamples = 1\nvalue = 6.0"] ;
635 -> 636 ;
637 [label="squared_error = 0.0\nsamples = 1\nvalue = 7.0"] ;
635 -> 637 ;
638 [label="station_avg_temp_c <= 28.3\nsquared_error = 378.5\nsamples = 4\nvalue = 40.5"] ;
586 -> 638 ;
639 [label="precipitation_amt_mm <= 71.0\nsquared_error = 37.6\nsamples = 2\nvalue = 18.7"] ;
638 -> 639 ;
640 [label="squared_error = 0.0\nsamples = 1\nvalue = 23.0"] ;
639 -> 640 ;
641 [label="squared_error = 0.0\nsamples = 1\nvalue = 10.0"] ;
639 -> 641 ;
642 [label="reanalysis_relative_humidity_percent <= 80.1\nsquared_error = 125.4\nsamples = 2\nvalue = 53.6"] ;
638 -> 642 ;
643 [label="squared_error = 0.0\nsamples = 1\nvalue = 48.0"] ;
642 -> 643 ;
644 [label="squared_error = 0.0\nsamples = 1\nvalue = 76.0"] ;
642 -> 644 ;
645 [label="station_avg_temp_c <= 28.5\nsquared_error = 6916.4\nsamples = 11\nvalue = 62.5"] ;
583 -> 645 ;
646 [label="reanalysis_precip_amt_kg_per_m2 <= 28.0\nsquared_error = 10201.0\nsamples = 2\nvalue = 228.0"] ;
645 -> 646 ;
647 [label="squared_error = 0.0\nsamples = 1\nvalue = 329.0"] ;
646 -> 647 ;
648 [label="squared_error = 0.0\nsamples = 1\nvalue = 127.0"] ;
646 -> 648 ;
649 [label="reanalysis_tdtr_k <= 2.5\nsquared_error = 436.4\nsamples = 9\nvalue = 32.5"] ;
645 -> 649 ;
650 [label="squared_error = 0.0\nsamples = 1\nvalue = 89.0"] ;
649 -> 650 ;
651 [label="ndvi_sw <= 0.2\nsquared_error = 128.4\nsamples = 8\nvalue = 26.8"] ;
649 -> 651 ;
652 [label="reanalysis_avg_temp_k <= 300.8\nsquared_error = 39.2\nsamples = 3\nvalue = 14.2"] ;
651 -> 652 ;
653 [label="station_max_temp_c <= 33.6\nsquared_error = 12.2\nsamples = 2\nvalue = 8.5"] ;
652 -> 653 ;
654 [label="squared_error = 0.0\nsamples = 1\nvalue = 5.0"] ;
653 -> 654 ;
655 [label="squared_error = 0.0\nsamples = 1\nvalue = 12.0"] ;
653 -> 655 ;
656 [label="squared_error = 0.0\nsamples = 1\nvalue = 20.0"] ;
652 -> 656 ;
657 [label="reanalysis_dew_point_temp_k <= 297.3\nsquared_error = 12.8\nsamples = 5\nvalue = 35.2"] ;
651 -> 657 ;
658 [label="ndvi_nw <= 0.0\nsquared_error = 4.0\nsamples = 3\nvalue = 33.0"] ;
657 -> 658 ;
659 [label="squared_error = 0.0\nsamples = 2\nvalue = 35.0"] ;
658 -> 659 ;
660 [label="squared_error = 0.0\nsamples = 1\nvalue = 31.0"] ;
658 -> 660 ;
661 [label="station_precip_mm <= 17.1\nsquared_error = 2.2\nsamples = 2\nvalue = 39.5"] ;
657 -> 661 ;
662 [label="squared_error = 0.0\nsamples = 1\nvalue = 41.0"] ;
661 -> 662 ;
663 [label="squared_error = 0.0\nsamples = 1\nvalue = 38.0"] ;
661 -> 663 ;
664 [label="ndvi_sw <= 0.2\nsquared_error = 5166.8\nsamples = 75\nvalue = 59.3"] ;
2 -> 664 ;
665 [label="reanalysis_relative_humidity_percent <= 82.2\nsquared_error = 1406.7\nsamples = 58\nvalue = 42.1"] ;
664 -> 665 ;
666 [label="reanalysis_avg_temp_k <= 299.6\nsquared_error = 2510.9\nsamples = 3\nvalue = 119.8"] ;
665 -> 666 ;
667 [label="squared_error = 0.0\nsamples = 1\nvalue = 81.0"] ;
666 -> 667 ;
668 [label="reanalysis_min_air_temp_k <= 298.2\nsquared_error = 22.2\nsamples = 2\nvalue = 184.3"] ;
666 -> 668 ;
669 [label="squared_error = 0.0\nsamples = 1\nvalue = 191.0"] ;
668 -> 669 ;
670 [label="squared_error = 0.0\nsamples = 1\nvalue = 181.0"] ;
668 -> 670 ;
671 [label="station_diur_temp_rng_c <= 8.2\nsquared_error = 663.4\nsamples = 55\nvalue = 34.6"] ;
665 -> 671 ;
672 [label="reanalysis_dew_point_temp_k <= 297.1\nsquared_error = 495.6\nsamples = 54\nvalue = 33.2"] ;
671 -> 672 ;
673 [label="reanalysis_min_air_temp_k <= 295.8\nsquared_error = 400.3\nsamples = 49\nvalue = 30.7"] ;
672 -> 673 ;
674 [label="station_avg_temp_c <= 25.0\nsquared_error = 456.2\nsamples = 3\nvalue = 62.5"] ;
673 -> 674 ;
675 [label="squared_error = 0.0\nsamples = 1\nvalue = 30.0"] ;
674 -> 675 ;
676 [label="reanalysis_tdtr_k <= 2.0\nsquared_error = 138.9\nsamples = 2\nvalue = 73.3"] ;
674 -> 676 ;
677 [label="squared_error = 0.0\nsamples = 1\nvalue = 90.0"] ;
676 -> 677 ;
678 [label="squared_error = 0.0\nsamples = 1\nvalue = 65.0"] ;
676 -> 678 ;
679 [label="ndvi_nw <= 0.0\nsquared_error = 335.9\nsamples = 46\nvalue = 28.9"] ;
673 -> 679 ;
680 [label="reanalysis_precip_amt_kg_per_m2 <= 65.3\nsquared_error = 649.0\nsamples = 7\nvalue = 49.4"] ;
679 -> 680 ;
681 [label="ndvi_se <= 0.2\nsquared_error = 149.2\nsamples = 5\nvalue = 36.7"] ;
680 -> 681 ;
682 [label="ndvi_nw <= -0.0\nsquared_error = 26.0\nsamples = 3\nvalue = 25.0"] ;
681 -> 682 ;
683 [label="squared_error = 0.0\nsamples = 1\nvalue = 18.0"] ;
682 -> 683 ;
684 [label="reanalysis_dew_point_temp_k <= 296.7\nsquared_error = 2.2\nsamples = 2\nvalue = 28.5"] ;
682 -> 684 ;
685 [label="squared_error = 0.0\nsamples = 1\nvalue = 30.0"] ;
684 -> 685 ;
686 [label="squared_error = 0.0\nsamples = 1\nvalue = 27.0"] ;
684 -> 686 ;
687 [label="station_precip_mm <= 79.2\nsquared_error = 0.2\nsamples = 2\nvalue = 48.3"] ;
681 -> 687 ;
688 [label="squared_error = 0.0\nsamples = 1\nvalue = 48.0"] ;
687 -> 688 ;
689 [label="squared_error = 0.0\nsamples = 1\nvalue = 49.0"] ;
687 -> 689 ;
690 [label="reanalysis_min_air_temp_k <= 297.7\nsquared_error = 210.2\nsamples = 2\nvalue = 87.5"] ;
680 -> 690 ;
691 [label="squared_error = 0.0\nsamples = 1\nvalue = 73.0"] ;
690 -> 691 ;
692 [label="squared_error = 0.0\nsamples = 1\nvalue = 102.0"] ;
690 -> 692 ;
693 [label="station_max_temp_c <= 34.2\nsquared_error = 234.2\nsamples = 39\nvalue = 26.2"] ;
679 -> 693 ;
694 [label="ndvi_sw <= 0.1\nsquared_error = 192.8\nsamples = 38\nvalue = 25.0"] ;
693 -> 694 ;
695 [label="reanalysis_dew_point_temp_k <= 295.8\nsquared_error = 128.0\nsamples = 2\nvalue = 51.0"] ;
694 -> 695 ;
696 [label="squared_error = 0.0\nsamples = 1\nvalue = 67.0"] ;
695 -> 696 ;
697 [label="squared_error = 0.0\nsamples = 1\nvalue = 43.0"] ;
695 -> 697 ;
698 [label="reanalysis_precip_amt_kg_per_m2 <= 47.4\nsquared_error = 158.6\nsamples = 36\nvalue = 23.6"] ;
694 -> 698 ;
699 [label="reanalysis_sat_precip_amt_mm <= 14.3\nsquared_error = 122.7\nsamples = 12\nvalue = 15.9"] ;
698 -> 699 ;
700 [label="squared_error = 0.0\nsamples = 1\nvalue = 51.0"] ;
699 -> 700 ;
701 [label="station_avg_temp_c <= 28.4\nsquared_error = 48.5\nsamples = 11\nvalue = 13.7"] ;
699 -> 701 ;
702 [label="reanalysis_relative_humidity_percent <= 83.4\nsquared_error = 32.2\nsamples = 9\nvalue = 12.1"] ;
701 -> 702 ;
703 [label="ndvi_nw <= 0.1\nsquared_error = 22.8\nsamples = 5\nvalue = 8.5"] ;
702 -> 703 ;
704 [label="reanalysis_air_temp_k <= 299.5\nsquared_error = 0.2\nsamples = 3\nvalue = 4.2"] ;
703 -> 704 ;
705 [label="squared_error = 0.0\nsamples = 2\nvalue = 4.0"] ;
704 -> 705 ;
706 [label="squared_error = 0.0\nsamples = 1\nvalue = 5.0"] ;
704 -> 706 ;
707 [label="reanalysis_avg_temp_k <= 299.7\nsquared_error = 9.2\nsamples = 2\nvalue = 12.8"] ;
703 -> 707 ;
708 [label="squared_error = 0.0\nsamples = 1\nvalue = 18.0"] ;
707 -> 708 ;
709 [label="squared_error = 0.0\nsamples = 1\nvalue = 11.0"] ;
707 -> 709 ;
710 [label="reanalysis_sat_precip_amt_mm <= 95.3\nsquared_error = 5.1\nsamples = 4\nvalue = 16.8"] ;
702 -> 710 ;
711 [label="ndvi_nw <= 0.1\nsquared_error = 1.7\nsamples = 3\nvalue = 18.2"] ;
710 -> 711 ;
712 [label="squared_error = 0.0\nsamples = 1\nvalue = 17.0"] ;
711 -> 712 ;
713 [label="station_min_temp_c <= 23.6\nsquared_error = 0.2\nsamples = 2\nvalue = 19.5"] ;
711 -> 713 ;
714 [label="squared_error = 0.0\nsamples = 1\nvalue = 19.0"] ;
713 -> 714 ;
715 [label="squared_error = 0.0\nsamples = 1\nvalue = 20.0"] ;
713 -> 715 ;
716 [label="squared_error = 0.0\nsamples = 1\nvalue = 14.0"] ;
710 -> 716 ;
717 [label="station_max_temp_c <= 32.5\nsquared_error = 16.0\nsamples = 2\nvalue = 25.0"] ;
701 -> 717 ;
718 [label="squared_error = 0.0\nsamples = 1\nvalue = 21.0"] ;
717 -> 718 ;
719 [label="squared_error = 0.0\nsamples = 1\nvalue = 29.0"] ;
717 -> 719 ;
720 [label="station_diur_temp_rng_c <= 6.9\nsquared_error = 138.0\nsamples = 24\nvalue = 26.8"] ;
698 -> 720 ;
721 [label="reanalysis_min_air_temp_k <= 297.2\nsquared_error = 66.9\nsamples = 19\nvalue = 23.4"] ;
720 -> 721 ;
722 [label="reanalysis_relative_humidity_percent <= 82.8\nsquared_error = 14.3\nsamples = 8\nvalue = 28.2"] ;
721 -> 722 ;
723 [label="squared_error = 0.0\nsamples = 1\nvalue = 20.0"] ;
722 -> 723 ;
724 [label="station_precip_mm <= 67.0\nsquared_error = 6.1\nsamples = 7\nvalue = 29.3"] ;
722 -> 724 ;
725 [label="station_precip_mm <= 23.3\nsquared_error = 2.7\nsamples = 5\nvalue = 28.3"] ;
724 -> 725 ;
726 [label="squared_error = 0.0\nsamples = 1\nvalue = 23.0"] ;
725 -> 726 ;
727 [label="reanalysis_specific_humidity_g_per_kg <= 16.5\nsquared_error = 0.1\nsamples = 4\nvalue = 28.8"] ;
725 -> 727 ;
728 [label="squared_error = 0.0\nsamples = 1\nvalue = 28.0"] ;
727 -> 728 ;
729 [label="squared_error = 0.0\nsamples = 3\nvalue = 29.0"] ;
727 -> 729 ;
730 [label="reanalysis_precip_amt_kg_per_m2 <= 126.9\nsquared_error = 2.0\nsamples = 2\nvalue = 33.0"] ;
724 -> 730 ;
731 [label="squared_error = 0.0\nsamples = 1\nvalue = 31.0"] ;
730 -> 731 ;
732 [label="squared_error = 0.0\nsamples = 1\nvalue = 34.0"] ;
730 -> 732 ;
733 [label="station_precip_mm <= 28.4\nsquared_error = 72.1\nsamples = 11\nvalue = 18.2"] ;
721 -> 733 ;
734 [label="reanalysis_tdtr_k <= 2.0\nsquared_error = 36.0\nsamples = 2\nvalue = 34.0"] ;
733 -> 734 ;
735 [label="squared_error = 0.0\nsamples = 1\nvalue = 40.0"] ;
734 -> 735 ;
736 [label="squared_error = 0.0\nsamples = 1\nvalue = 28.0"] ;
734 -> 736 ;
737 [label="reanalysis_relative_humidity_percent <= 85.3\nsquared_error = 36.7\nsamples = 9\nvalue = 16.0"] ;
733 -> 737 ;
738 [label="station_precip_mm <= 52.6\nsquared_error = 13.2\nsamples = 5\nvalue = 11.5"] ;
737 -> 738 ;
739 [label="reanalysis_tdtr_k <= 2.0\nsquared_error = 2.9\nsamples = 3\nvalue = 13.3"] ;
738 -> 739 ;
740 [label="station_avg_temp_c <= 27.9\nsquared_error = 0.2\nsamples = 2\nvalue = 12.6"] ;
739 -> 740 ;
741 [label="squared_error = 0.0\nsamples = 1\nvalue = 12.0"] ;
740 -> 741 ;
742 [label="squared_error = 0.0\nsamples = 1\nvalue = 13.0"] ;
740 -> 742 ;
743 [label="squared_error = 0.0\nsamples = 1\nvalue = 17.0"] ;
739 -> 743 ;
744 [label="reanalysis_tdtr_k <= 2.6\nsquared_error = 4.0\nsamples = 2\nvalue = 6.0"] ;
738 -> 744 ;
745 [label="squared_error = 0.0\nsamples = 1\nvalue = 4.0"] ;
744 -> 745 ;
746 [label="squared_error = 0.0\nsamples = 1\nvalue = 8.0"] ;
744 -> 746 ;
747 [label="reanalysis_air_temp_k <= 299.2\nsquared_error = 5.0\nsamples = 4\nvalue = 22.0"] ;
737 -> 747 ;
748 [label="squared_error = 0.0\nsamples = 2\nvalue = 19.0"] ;
747 -> 748 ;
749 [label="station_min_temp_c <= 22.5\nsquared_error = 0.8\nsamples = 2\nvalue = 23.5"] ;
747 -> 749 ;
750 [label="squared_error = 0.0\nsamples = 1\nvalue = 22.0"] ;
749 -> 750 ;
751 [label="squared_error = 0.0\nsamples = 1\nvalue = 24.0"] ;
749 -> 751 ;
752 [label="reanalysis_sat_precip_amt_mm <= 49.7\nsquared_error = 145.6\nsamples = 5\nvalue = 43.3"] ;
720 -> 752 ;
753 [label="station_precip_mm <= 17.9\nsquared_error = 12.2\nsamples = 2\nvalue = 26.5"] ;
752 -> 753 ;
754 [label="squared_error = 0.0\nsamples = 1\nvalue = 23.0"] ;
753 -> 754 ;
755 [label="squared_error = 0.0\nsamples = 1\nvalue = 30.0"] ;
753 -> 755 ;
756 [label="reanalysis_sat_precip_amt_mm <= 105.9\nsquared_error = 41.2\nsamples = 3\nvalue = 50.0"] ;
752 -> 756 ;
757 [label="ndvi_nw <= 0.1\nsquared_error = 14.2\nsamples = 2\nvalue = 54.7"] ;
756 -> 757 ;
758 [label="squared_error = 0.0\nsamples = 1\nvalue = 60.0"] ;
757 -> 758 ;
759 [label="squared_error = 0.0\nsamples = 1\nvalue = 52.0"] ;
757 -> 759 ;
760 [label="squared_error = 0.0\nsamples = 1\nvalue = 43.0"] ;
756 -> 760 ;
761 [label="squared_error = 0.0\nsamples = 1\nvalue = 64.0"] ;
693 -> 761 ;
762 [label="station_precip_mm <= 59.9\nsquared_error = 781.5\nsamples = 5\nvalue = 56.4"] ;
672 -> 762 ;
763 [label="reanalysis_specific_humidity_g_per_kg <= 18.8\nsquared_error = 234.5\nsamples = 4\nvalue = 42.2"] ;
762 -> 763 ;
764 [label="squared_error = 0.0\nsamples = 1\nvalue = 61.0"] ;
763 -> 764 ;
765 [label="reanalysis_specific_humidity_g_per_kg <= 19.0\nsquared_error = 85.7\nsamples = 3\nvalue = 32.8"] ;
763 -> 765 ;
766 [label="station_avg_temp_c <= 29.3\nsquared_error = 0.2\nsamples = 2\nvalue = 23.5"] ;
765 -> 766 ;
767 [label="squared_error = 0.0\nsamples = 1\nvalue = 23.0"] ;
766 -> 767 ;
768 [label="squared_error = 0.0\nsamples = 1\nvalue = 24.0"] ;
766 -> 768 ;
769 [label="squared_error = 0.0\nsamples = 1\nvalue = 42.0"] ;
765 -> 769 ;
770 [label="squared_error = 0.0\nsamples = 1\nvalue = 99.0"] ;
762 -> 770 ;
771 [label="squared_error = 0.0\nsamples = 1\nvalue = 154.0"] ;
671 -> 771 ;
772 [label="ndvi_sw <= 0.2\nsquared_error = 13670.4\nsamples = 17\nvalue = 119.5"] ;
664 -> 772 ;
773 [label="reanalysis_tdtr_k <= 3.7\nsquared_error = 11869.5\nsamples = 5\nvalue = 278.2"] ;
772 -> 773 ;
774 [label="station_diur_temp_rng_c <= 6.7\nsquared_error = 2715.2\nsamples = 4\nvalue = 322.0"] ;
773 -> 774 ;
775 [label="squared_error = 0.0\nsamples = 1\nvalue = 221.0"] ;
774 -> 775 ;
776 [label="precipitation_amt_mm <= 71.8\nsquared_error = 206.2\nsamples = 3\nvalue = 347.2"] ;
774 -> 776 ;
777 [label="reanalysis_relative_humidity_percent <= 83.5\nsquared_error = 6.2\nsamples = 2\nvalue = 361.5"] ;
776 -> 777 ;
778 [label="squared_error = 0.0\nsamples = 1\nvalue = 359.0"] ;
777 -> 778 ;
779 [label="squared_error = 0.0\nsamples = 1\nvalue = 364.0"] ;
777 -> 779 ;
780 [label="squared_error = 0.0\nsamples = 1\nvalue = 333.0"] ;
776 -> 780 ;
781 [label="squared_error = 0.0\nsamples = 1\nvalue = 59.0"] ;
773 -> 781 ;
782 [label="station_diur_temp_rng_c <= 5.8\nsquared_error = 4392.4\nsamples = 12\nvalue = 71.9"] ;
772 -> 782 ;
783 [label="squared_error = 0.0\nsamples = 1\nvalue = 256.0"] ;
782 -> 783 ;
784 [label="reanalysis_sat_precip_amt_mm <= 110.5\nsquared_error = 696.1\nsamples = 11\nvalue = 51.4"] ;
782 -> 784 ;
785 [label="station_avg_temp_c <= 28.5\nsquared_error = 350.9\nsamples = 8\nvalue = 64.4"] ;
784 -> 785 ;
786 [label="station_precip_mm <= 66.1\nsquared_error = 130.2\nsamples = 7\nvalue = 71.0"] ;
785 -> 786 ;
787 [label="reanalysis_specific_humidity_g_per_kg <= 17.9\nsquared_error = 36.9\nsamples = 5\nvalue = 61.5"] ;
786 -> 787 ;
788 [label="squared_error = 0.0\nsamples = 2\nvalue = 70.0"] ;
787 -> 788 ;
789 [label="precipitation_amt_mm <= 92.8\nsquared_error = 1.2\nsamples = 3\nvalue = 57.2"] ;
787 -> 789 ;
790 [label="squared_error = 0.0\nsamples = 1\nvalue = 59.0"] ;
789 -> 790 ;
791 [label="reanalysis_specific_humidity_g_per_kg <= 18.0\nsquared_error = 0.2\nsamples = 2\nvalue = 56.7"] ;
789 -> 791 ;
792 [label="squared_error = 0.0\nsamples = 1\nvalue = 56.0"] ;
791 -> 792 ;
793 [label="squared_error = 0.0\nsamples = 1\nvalue = 57.0"] ;
791 -> 793 ;
794 [label="reanalysis_max_air_temp_k <= 301.2\nsquared_error = 3.8\nsamples = 2\nvalue = 82.4"] ;
786 -> 794 ;
795 [label="squared_error = 0.0\nsamples = 1\nvalue = 84.0"] ;
794 -> 795 ;
796 [label="squared_error = 0.0\nsamples = 1\nvalue = 80.0"] ;
794 -> 796 ;
797 [label="squared_error = 0.0\nsamples = 1\nvalue = 28.0"] ;
785 -> 797 ;
798 [label="reanalysis_min_air_temp_k <= 298.2\nsquared_error = 26.6\nsamples = 3\nvalue = 17.8"] ;
784 -> 798 ;
799 [label="reanalysis_specific_humidity_g_per_kg <= 17.7\nsquared_error = 12.2\nsamples = 2\nvalue = 23.5"] ;
798 -> 799 ;
800 [label="squared_error = 0.0\nsamples = 1\nvalue = 27.0"] ;
799 -> 800 ;
801 [label="squared_error = 0.0\nsamples = 1\nvalue = 20.0"] ;
799 -> 801 ;
802 [label="squared_error = 0.0\nsamples = 1\nvalue = 14.0"] ;
798 -> 802 ;
803 [label="ndvi_sw <= 0.2\nsquared_error = 38804.0\nsamples = 4\nvalue = 182.0"] ;
1 -> 803 ;
804 [label="reanalysis_min_air_temp_k <= 298.0\nsquared_error = 1600.0\nsamples = 2\nvalue = 421.0"] ;
803 -> 804 ;
805 [label="squared_error = 0.0\nsamples = 1\nvalue = 461.0"] ;
804 -> 805 ;
806 [label="squared_error = 0.0\nsamples = 1\nvalue = 381.0"] ;
804 -> 806 ;
807 [label="ndvi_ne <= 0.2\nsquared_error = 138.9\nsamples = 2\nvalue = 22.7"] ;
803 -> 807 ;
808 [label="squared_error = 0.0\nsamples = 1\nvalue = 31.0"] ;
807 -> 808 ;
809 [label="squared_error = 0.0\nsamples = 1\nvalue = 6.0"] ;
807 -> 809 ;
810 [label="reanalysis_precip_amt_kg_per_m2 <= 59.6\nsquared_error = 410.9\nsamples = 2\nvalue = 234.3"] ;
0 -> 810 [labeldistance=2.5, labelangle=-45, headlabel="False"] ;
811 [label="squared_error = 0.0\nsamples = 1\nvalue = 263.0"] ;
810 -> 811 ;
812 [label="squared_error = 0.0\nsamples = 1\nvalue = 220.0"] ;
810 -> 812 ;
}